{"type":"n","options":{"inputSize":41,"inputRange":41,"hiddenLayers":[20,20],"outputSize":41,"decayRate":0.999,"smoothEps":1e-8,"regc":0.000001,"clipval":5,"maxPredictionLength":100,"dataFormatter":{"values":["Puntualidad","1.1","Compromiso","2.1","Electronica Analogica","3.1","Dialogo","4.1000000000000005","Respeto","5.1000000000000005","Liderazgo","6.1000000000000005","Colaboraci贸n","7.1000000000000005","Disciplina","8.1","Justicia","9.1","Entusiasta","10.100000000000001"],"indexTable":{"0":26,"1":8,"2":16,"3":23,"4":25,"5":27,"6":31,"7":34,"8":35,"9":37,"P":0,"u":1,"n":2,"t":3,"a":4,"l":5,"i":6,"d":7,".":9,"C":10,"o":11,"m":12,"p":13,"r":14,"s":15,"E":17,"e":18,"c":19," ":20,"A":21,"g":22,"D":24,"R":28,"L":29,"z":30,"b":32,"贸":33,"J":36,"stop-input":38,"start-output":39,"unrecognized":40},"characterTable":{"0":"P","1":"u","2":"n","3":"t","4":"a","5":"l","6":"i","7":"d","8":"1","9":".","10":"C","11":"o","12":"m","13":"p","14":"r","15":"s","16":"2","17":"E","18":"e","19":"c","20":" ","21":"A","22":"g","23":"3","24":"D","25":"4","26":"0","27":"5","28":"R","29":"L","30":"z","31":"6","32":"b","33":"贸","34":"7","35":"8","36":"J","37":"9","38":null,"39":null,"40":null},"characters":["P","u","n","t","a","l","i","d","1",".","C","o","m","p","r","s","2","E","e","c"," ","A","g","3","D","4","0","5","R","L","z","6","b","贸","7","8","J","9","stop-input","start-output","unrecognized"],"specialIndexes":[38,39,40]}},"input":{"rows":42,"columns":41,"weights":{"0":-3.794222831726074,"1":-4.877013683319092,"2":6.191744804382324,"3":2.4576621055603027,"4":-3.672807216644287,"5":-2.405573844909668,"6":-7.405019760131836,"7":-7.451005935668945,"8":2.6931583881378174,"9":1.8982386589050293,"10":-7.367477893829346,"11":0.41575559973716736,"12":7.7198028564453125,"13":4.944338798522949,"14":-2.860567092895508,"15":6.480093955993652,"16":-0.8062033653259277,"17":-7.8519744873046875,"18":-2.9963583946228027,"19":0.6837357878684998,"20":-1.4132846593856812,"21":4.01777458190918,"22":-0.025968164205551147,"23":5.254318714141846,"24":2.202988624572754,"25":0.9759101867675781,"26":0.7121060490608215,"27":-0.9039312601089478,"28":3.852822780609131,"29":6.446988582611084,"30":3.06415057182312,"31":8.966246604919434,"32":2.8446102142333984,"33":-4.93287467956543,"34":-7.929620265960693,"35":5.059110641479492,"36":-0.48530247807502747,"37":-1.4539551734924316,"38":-0.08498229831457138,"39":0.633622407913208,"40":-5.709273815155029,"41":0.899944543838501,"42":6.632730960845947,"43":6.022624492645264,"44":4.793448448181152,"45":-2.532942056655884,"46":3.6468074321746826,"47":-2.2056925296783447,"48":3.857393264770508,"49":6.010841369628906,"50":-5.0363335609436035,"51":-0.5125391483306885,"52":1.021176815032959,"53":3.1084840297698975,"54":-2.295299768447876,"55":-3.1702001094818115,"56":3.3119277954101562,"57":5.574938774108887,"58":1.2597980499267578,"59":3.8870019912719727,"60":6.90036153793335,"61":-8.068130493164062,"62":-7.066239833831787,"63":-3.4828243255615234,"64":-0.7416579723358154,"65":6.969109058380127,"66":-10.06271743774414,"67":1.3511419296264648,"68":-2.2844510078430176,"69":4.906754016876221,"70":-4.95109224319458,"71":-4.936706066131592,"72":11.282875061035156,"73":-8.496431350708008,"74":-2.875258684158325,"75":-2.7724387645721436,"76":-1.8502020835876465,"77":-0.5268252491950989,"78":-3.228799343109131,"79":2.3276803493499756,"80":-3.7437703609466553,"81":-3.1929166316986084,"82":5.818458080291748,"83":-3.051805019378662,"84":-1.4480654001235962,"85":-4.712522506713867,"86":9.69453239440918,"87":8.048192977905273,"88":-13.87048625946045,"89":15.980741500854492,"90":8.529322624206543,"91":-17.508769989013672,"92":13.423224449157715,"93":-9.63785171508789,"94":10.555118560791016,"95":6.290369987487793,"96":-16.014633178710938,"97":-8.612918853759766,"98":16.24058723449707,"99":18.084596633911133,"100":-6.860803604125977,"101":-3.1750681400299072,"102":6.539055824279785,"103":6.746323585510254,"104":-11.725011825561523,"105":-13.456932067871094,"106":14.520496368408203,"107":1.5744575262069702,"108":-5.836591720581055,"109":10.980366706848145,"110":-11.750019073486328,"111":-20.8890438079834,"112":3.0441665649414062,"113":-3.2102584838867188,"114":-16.78785514831543,"115":-12.353240966796875,"116":3.3864810466766357,"117":-12.53060245513916,"118":13.380805015563965,"119":6.979884147644043,"120":17.037742614746094,"121":-15.178234100341797,"122":-16.77974510192871,"123":14.665518760681152,"124":-17.595815658569336,"125":-31.74479866027832,"126":33.74324417114258,"127":29.16307258605957,"128":-32.52334213256836,"129":33.00669860839844,"130":26.583568572998047,"131":-28.633716583251953,"132":-32.875362396240234,"133":-32.43836212158203,"134":-24.60445213317871,"135":-31.48292350769043,"136":20.562564849853516,"137":-25.14713478088379,"138":-38.63982009887695,"139":-18.454566955566406,"140":17.668975830078125,"141":40.0721435546875,"142":-24.76582145690918,"143":-24.172557830810547,"144":30.781173706054688,"145":20.517780303955078,"146":-30.08324432373047,"147":36.153358459472656,"148":29.440309524536133,"149":24.84422492980957,"150":-28.741744995117188,"151":33.40019226074219,"152":18.839717864990234,"153":25.26184844970703,"154":-26.92442512512207,"155":30.739105224609375,"156":23.740619659423828,"157":-34.23063278198242,"158":-29.325679779052734,"159":22.84975814819336,"160":27.197782516479492,"161":28.719751358032227,"162":23.637880325317383,"163":3.5671803951263428,"164":10.093767166137695,"165":3.3360538482666016,"166":-12.73978042602539,"167":14.486845970153809,"168":11.868940353393555,"169":-11.526344299316406,"170":16.370615005493164,"171":14.740999221801758,"172":-13.152565956115723,"173":-16.37862205505371,"174":-5.9682488441467285,"175":-13.378318786621094,"176":-16.25738525390625,"177":8.205288887023926,"178":-16.150327682495117,"179":-7.162261009216309,"180":0.8064634799957275,"181":4.445523738861084,"182":5.31995964050293,"183":-16.319366455078125,"184":-15.404592514038086,"185":16.686832427978516,"186":12.241280555725098,"187":-14.448412895202637,"188":12.216628074645996,"189":4.0280680656433105,"190":15.582769393920898,"191":-17.48042106628418,"192":16.345041275024414,"193":11.757804870605469,"194":14.196256637573242,"195":-12.210052490234375,"196":11.569681167602539,"197":14.439457893371582,"198":-16.015960693359375,"199":-18.62102699279785,"200":11.241559982299805,"201":2.0996925830841064,"202":11.0026216506958,"203":15.350608825683594,"204":4.867229461669922,"205":-9.730992317199707,"206":-9.014699935913086,"207":-9.785170555114746,"208":11.439123153686523,"209":-10.64881706237793,"210":-11.138144493103027,"211":-10.33238410949707,"212":9.819174766540527,"213":-10.706413269042969,"214":8.452009201049805,"215":-9.76949405670166,"216":-10.260283470153809,"217":10.382569313049316,"218":-11.271267890930176,"219":8.80184268951416,"220":8.984582901000977,"221":-10.849995613098145,"222":11.20650863647461,"223":-10.171287536621094,"224":9.540470123291016,"225":10.16833209991455,"226":-7.962864875793457,"227":2.0622808933258057,"228":-12.496124267578125,"229":-9.986137390136719,"230":10.936357498168945,"231":-9.053787231445312,"232":11.04855728149414,"233":-10.470806121826172,"234":-9.871650695800781,"235":-9.476604461669922,"236":-9.746809005737305,"237":8.793606758117676,"238":-9.62076473236084,"239":10.375509262084961,"240":9.617652893066406,"241":11.46106243133545,"242":12.78174114227295,"243":9.966711044311523,"244":-10.251899719238281,"245":-6.404791831970215,"246":10.855798721313477,"247":11.3651762008667,"248":-8.520854949951172,"249":12.257158279418945,"250":8.982613563537598,"251":-11.22930908203125,"252":11.767921447753906,"253":-10.489483833312988,"254":-9.519768714904785,"255":-11.361530303955078,"256":10.291083335876465,"257":-8.998218536376953,"258":-11.833847045898438,"259":-13.598128318786621,"260":-12.1720609664917,"261":-12.265685081481934,"262":-9.618419647216797,"263":10.212499618530273,"264":-9.761924743652344,"265":-10.480072975158691,"266":11.134965896606445,"267":12.366660118103027,"268":12.845308303833008,"269":-10.92058277130127,"270":-9.965672492980957,"271":10.178315162658691,"272":10.85463809967041,"273":-11.383703231811523,"274":-10.226704597473145,"275":8.755743980407715,"276":10.620744705200195,"277":-8.58172607421875,"278":7.843487739562988,"279":10.827967643737793,"280":-10.3916597366333,"281":10.115180969238281,"282":10.846232414245605,"283":10.057904243469238,"284":-11.359367370605469,"285":8.518519401550293,"286":9.787466049194336,"287":-2.9763600826263428,"288":-18.67273712158203,"289":10.468270301818848,"290":-26.952983856201172,"291":6.663455963134766,"292":-3.218672513961792,"293":-4.597359657287598,"294":-6.841056823730469,"295":5.062464714050293,"296":-18.381420135498047,"297":-4.893589019775391,"298":13.969587326049805,"299":-3.607440233230591,"300":17.752962112426758,"301":-10.293164253234863,"302":-12.653080940246582,"303":-1.0024689435958862,"304":-13.444855690002441,"305":3.816795825958252,"306":-6.184658527374268,"307":7.74623966217041,"308":7.973516464233398,"309":7.153868198394775,"310":-7.108392238616943,"311":19.982826232910156,"312":-15.255758285522461,"313":5.915767192840576,"314":-0.6257195472717285,"315":11.03960132598877,"316":-5.471465110778809,"317":7.422915458679199,"318":4.038761138916016,"319":-1.5061501264572144,"320":-12.416481971740723,"321":0.8701363801956177,"322":-1.001315712928772,"323":1.516854166984558,"324":-11.442353248596191,"325":-5.433156490325928,"326":-19.46895980834961,"327":-24.747722625732422,"328":6.825587749481201,"329":-0.15704374015331268,"330":5.479403018951416,"331":0.2013407200574875,"332":-7.53450870513916,"333":5.701841831207275,"334":0.3218294680118561,"335":0.7444879412651062,"336":1.5857226848602295,"337":3.966613292694092,"338":0.10068169236183167,"339":0.20390655100345612,"340":5.701168060302734,"341":-1.79489004611969,"342":-3.3192481994628906,"343":3.9129247665405273,"344":2.247513771057129,"345":-0.15227480232715607,"346":-1.092821478843689,"347":-3.4322030544281006,"348":-6.456762790679932,"349":-5.786629676818848,"350":7.037988185882568,"351":-0.04792342334985733,"352":2.541513204574585,"353":0.8541557788848877,"354":-0.30591651797294617,"355":-2.4956862926483154,"356":0.9245058298110962,"357":8.23878288269043,"358":-3.07128643989563,"359":9.92974853515625,"360":-9.104376792907715,"361":0.9231079816818237,"362":9.000214576721191,"363":0.7092625498771667,"364":4.556797981262207,"365":0.06181328743696213,"366":-5.8313069343566895,"367":1.4016331434249878,"368":6.280651092529297,"369":15.644279479980469,"370":-4.42784309387207,"371":18.90644073486328,"372":0.7900373935699463,"373":-1.8125725984573364,"374":14.607260704040527,"375":-2.304486036300659,"376":-5.191041946411133,"377":15.418323516845703,"378":-7.345995903015137,"379":-0.922700047492981,"380":15.448970794677734,"381":0.9477732181549072,"382":15.165607452392578,"383":-16.967851638793945,"384":2.312133312225342,"385":10.257694244384766,"386":-14.104677200317383,"387":1.1889487504959106,"388":-20.79053497314453,"389":5.022121906280518,"390":16.373252868652344,"391":19.561498641967773,"392":-4.554821491241455,"393":17.265995025634766,"394":-12.461067199707031,"395":8.96537971496582,"396":4.431448936462402,"397":13.964971542358398,"398":-0.47114408016204834,"399":1.2014179229736328,"400":13.662168502807617,"401":4.418001651763916,"402":0.9388349056243896,"403":3.70526123046875,"404":-8.265948295593262,"405":1.1953543424606323,"406":4.5120344161987305,"407":-15.007911682128906,"408":0.5033493041992188,"409":-20.36132049560547,"410":-1.876664638519287,"411":-1.3851046562194824,"412":-13.486739158630371,"413":20.15716552734375,"414":2.0758700370788574,"415":-17.601449966430664,"416":16.240510940551758,"417":-6.571347236633301,"418":15.857579231262207,"419":-0.5555879473686218,"420":-11.025211334228516,"421":19.696435928344727,"422":-17.014585494995117,"423":-18.490604400634766,"424":17.143844604492188,"425":-2.3781492710113525,"426":-3.2820115089416504,"427":-12.541090965270996,"428":20.563631057739258,"429":19.735158920288086,"430":0.30020636320114136,"431":0.6681824326515198,"432":-1.1958551406860352,"433":16.634279251098633,"434":0.8826133012771606,"435":-16.9315185546875,"436":-19.942607879638672,"437":-12.882923126220703,"438":19.204483032226562,"439":-5.160513877868652,"440":-19.781681060791016,"441":8.519756317138672,"442":9.682493209838867,"443":-9.52372932434082,"444":-1.5831248760223389,"445":-6.115914344787598,"446":-1.168222427368164,"447":-3.9268078804016113,"448":-4.149820327758789,"449":-14.305608749389648,"450":-0.5845991373062134,"451":-23.327392578125,"452":0.4842064380645752,"453":18.364791870117188,"454":25.976221084594727,"455":-22.695547103881836,"456":-26.28205108642578,"457":10.550500869750977,"458":-27.44036102294922,"459":-26.572284698486328,"460":24.469249725341797,"461":-30.210020065307617,"462":25.207378387451172,"463":20.751638412475586,"464":-24.012012481689453,"465":16.10002326965332,"466":6.632421493530273,"467":-9.52641487121582,"468":-28.09183120727539,"469":29.87920379638672,"470":28.99418067932129,"471":-29.30253028869629,"472":-22.795801162719727,"473":28.195817947387695,"474":29.745922088623047,"475":-28.676841735839844,"476":-23.875043869018555,"477":5.230994701385498,"478":-29.12408447265625,"479":20.044517517089844,"480":30.425046920776367,"481":-6.603880405426025,"482":28.41607093811035,"483":13.31032657623291,"484":26.50998306274414,"485":-23.755260467529297,"486":26.979887008666992,"487":-20.062522888183594,"488":-25.829078674316406,"489":-4.240655899047852,"490":6.629065990447998,"491":3.3833727836608887,"492":6.026697635650635,"493":11.37229061126709,"494":14.580513954162598,"495":-2.745116710662842,"496":4.059145927429199,"497":3.6466805934906006,"498":-8.681526184082031,"499":-17.093835830688477,"500":4.827462673187256,"501":17.59926414489746,"502":2.3007593154907227,"503":16.518775939941406,"504":-3.234586238861084,"505":5.589168548583984,"506":13.005526542663574,"507":-6.267008304595947,"508":8.595884323120117,"509":-17.485475540161133,"510":-1.7071224451065063,"511":17.851091384887695,"512":1.6275100708007812,"513":-11.368701934814453,"514":-3.456484317779541,"515":17.736263275146484,"516":-18.586999893188477,"517":-14.465418815612793,"518":-3.212512493133545,"519":-15.601961135864258,"520":-5.0868330001831055,"521":-1.5102386474609375,"522":5.604868412017822,"523":1.4311810731887817,"524":-8.017593383789062,"525":15.552730560302734,"526":-14.211141586303711,"527":-0.8459746837615967,"528":-12.154138565063477,"529":-14.808618545532227,"530":-11.779620170593262,"531":-10.580591201782227,"532":-7.860572814941406,"533":-38.30952835083008,"534":36.21965789794922,"535":17.504226684570312,"536":46.17374801635742,"537":-41.5014762878418,"538":-43.01852035522461,"539":27.496694564819336,"540":-42.89530944824219,"541":-36.45439147949219,"542":46.24082565307617,"543":-45.92745590209961,"544":38.72736740112305,"545":35.938629150390625,"546":-38.1722412109375,"547":40.87969207763672,"548":26.62652015686035,"549":-13.09494400024414,"550":-43.251773834228516,"551":48.92102813720703,"552":45.60826873779297,"553":-46.0416145324707,"554":-45.020267486572266,"555":42.62008285522461,"556":43.51486587524414,"557":-48.47337341308594,"558":-30.210861206054688,"559":-32.82999038696289,"560":-46.30194854736328,"561":37.87446975708008,"562":46.31801986694336,"563":-38.70976257324219,"564":43.22840118408203,"565":-0.7979278564453125,"566":38.31248474121094,"567":-22.860435485839844,"568":36.22549057006836,"569":-1.044507622718811,"570":-30.325851440429688,"571":8.54038143157959,"572":-2.872343063354492,"573":41.107139587402344,"574":-18.05179214477539,"575":17.32807731628418,"576":-3.6566100120544434,"577":16.47364616394043,"578":-12.73275089263916,"579":-17.1326847076416,"580":15.779972076416016,"581":-16.45426368713379,"582":-16.848886489868164,"583":17.315935134887695,"584":-19.10795783996582,"585":12.144990921020508,"586":12.62844181060791,"587":-16.77861213684082,"588":19.37263298034668,"589":-6.60037088394165,"590":-5.092983245849609,"591":-16.159353256225586,"592":21.288272857666016,"593":18.537389755249023,"594":-20.269643783569336,"595":-17.463407516479492,"596":17.490917205810547,"597":19.20601463317871,"598":-21.258148193359375,"599":-13.387749671936035,"600":-14.07149887084961,"601":-20.441396713256836,"602":14.010573387145996,"603":19.96169090270996,"604":-6.277410984039307,"605":11.620640754699707,"606":-6.602645397186279,"607":18.705692291259766,"608":-10.50236988067627,"609":12.425718307495117,"610":-5.1819047927856445,"611":-16.413272857666016,"612":7.938055038452148,"613":5.682357311248779,"614":17.473907470703125,"615":-11.685050964355469,"616":-8.186152458190918,"617":-4.538185119628906,"618":9.783541679382324,"619":-8.104865074157715,"620":-11.247714042663574,"621":-4.514108180999756,"622":1.137015700340271,"623":-13.700348854064941,"624":10.931717872619629,"625":-9.888591766357422,"626":1.8382341861724854,"627":13.082754135131836,"628":-6.426964282989502,"629":13.993254661560059,"630":10.336112976074219,"631":-9.52591323852539,"632":3.210029363632202,"633":6.580339431762695,"634":11.78737735748291,"635":5.345344066619873,"636":-12.277997016906738,"637":5.927971363067627,"638":1.0259827375411987,"639":-12.96794319152832,"640":10.768550872802734,"641":-14.938392639160156,"642":8.162153244018555,"643":0.8245358467102051,"644":3.067648410797119,"645":-11.658149719238281,"646":-4.827561855316162,"647":12.362016677856445,"648":-1.8532726764678955,"649":11.385980606079102,"650":15.761740684509277,"651":3.766058921813965,"652":7.74992561340332,"653":8.801056861877441,"654":-1.6174867153167725,"655":0.21588337421417236,"656":-18.656789779663086,"657":-17.20867156982422,"658":21.492441177368164,"659":-19.658891677856445,"660":-21.617595672607422,"661":0.5687620639801025,"662":2.4603254795074463,"663":-19.43871307373047,"664":-19.545501708984375,"665":-22.22989845275879,"666":-20.25531578063965,"667":3.208463430404663,"668":22.545265197753906,"669":14.547714233398438,"670":-22.436655044555664,"671":-7.365777015686035,"672":-17.364784240722656,"673":-18.326560974121094,"674":-18.483333587646484,"675":13.71866226196289,"676":-17.514137268066406,"677":21.97588539123535,"678":-13.824275970458984,"679":18.576696395874023,"680":1.986862063407898,"681":-4.291494846343994,"682":22.881078720092773,"683":-19.97187042236328,"684":-17.547697067260742,"685":22.360820770263672,"686":19.324687957763672,"687":20.21889877319336,"688":-4.690375328063965,"689":21.842872619628906,"690":-21.94154930114746,"691":0.19588789343833923,"692":2.9978435039520264,"693":-19.133441925048828,"694":-14.579416275024414,"695":-5.376705169677734,"696":-22.8291015625,"697":-44.17935562133789,"698":51.06903839111328,"699":-11.53822135925293,"700":46.08606719970703,"701":-44.14860534667969,"702":-49.96882629394531,"703":51.63185119628906,"704":-5.406311511993408,"705":-45.05936050415039,"706":49.52372741699219,"707":-49.841068267822266,"708":38.57898712158203,"709":-40.516845703125,"710":-51.66215515136719,"711":50.66709518432617,"712":-49.430545806884766,"713":42.48975372314453,"714":48.575958251953125,"715":51.65732955932617,"716":51.81572723388672,"717":-51.026397705078125,"718":-51.2607307434082,"719":51.21247482299805,"720":51.192283630371094,"721":-51.50214385986328,"722":-49.43608856201172,"723":-46.52773666381836,"724":-51.5391731262207,"725":45.89301681518555,"726":51.05806350708008,"727":-38.776798248291016,"728":-49.246185302734375,"729":16.4197998046875,"730":51.62297821044922,"731":15.812372207641602,"732":47.61563491821289,"733":-30.105682373046875,"734":-50.717586517333984,"735":-49.09746551513672,"736":48.69508743286133,"737":49.41032409667969,"738":40.92230987548828,"739":22.246509552001953,"740":36.327552795410156,"741":12.594830513000488,"742":-21.513458251953125,"743":41.69561004638672,"744":25.16849708557129,"745":41.66395950317383,"746":12.852242469787598,"747":-12.9790678024292,"748":-11.572051048278809,"749":-41.24323272705078,"750":-41.616607666015625,"751":-12.25856876373291,"752":-16.959327697753906,"753":-33.46710968017578,"754":28.062374114990234,"755":-13.65556812286377,"756":24.403642654418945,"757":-41.67748260498047,"758":-11.645002365112305,"759":41.60002517700195,"760":22.123245239257812,"761":-41.65131378173828,"762":10.022183418273926,"763":-25.668628692626953,"764":41.69269561767578,"765":-26.314638137817383,"766":9.146839141845703,"767":41.68120574951172,"768":-41.60183334350586,"769":7.169642448425293,"770":-14.49586296081543,"771":41.463706970214844,"772":-41.59136962890625,"773":-29.176673889160156,"774":-41.633270263671875,"775":-41.657527923583984,"776":-41.66281509399414,"777":-41.59073257446289,"778":41.68763732910156,"779":17.748226165771484,"780":17.636676788330078,"781":-17.66179847717285,"782":17.733675003051758,"783":17.649038314819336,"784":-17.65447235107422,"785":17.70225715637207,"786":17.692928314208984,"787":-17.735750198364258,"788":-17.702518463134766,"789":-17.735408782958984,"790":-17.7396240234375,"791":-17.687482833862305,"792":-17.71465492248535,"793":-17.64323616027832,"794":-17.704992294311523,"795":-17.712203979492188,"796":-17.712570190429688,"797":17.665687561035156,"798":-17.744163513183594,"799":-17.672664642333984,"800":17.66411781311035,"801":17.708927154541016,"802":-17.731929779052734,"803":17.64944076538086,"804":17.707435607910156,"805":17.73202133178711,"806":-17.72864532470703,"807":17.655332565307617,"808":17.64195442199707,"809":17.69392967224121,"810":17.647781372070312,"811":-17.646743774414062,"812":17.63534927368164,"813":-17.71634292602539,"814":-17.730981826782227,"815":17.70524787902832,"816":17.625476837158203,"817":-17.65235710144043,"818":17.72624397277832,"819":17.710227966308594,"820":28.862333297729492,"821":28.816797256469727,"822":-28.809593200683594,"823":28.897226333618164,"824":28.829872131347656,"825":-28.826656341552734,"826":23.82269859313965,"827":28.890907287597656,"828":-28.791187286376953,"829":-20.156578063964844,"830":-28.805631637573242,"831":-28.890182495117188,"832":-19.103240966796875,"833":-28.87186050415039,"834":-23.84735679626465,"835":-28.782264709472656,"836":-28.89800262451172,"837":-28.86929702758789,"838":28.851816177368164,"839":-22.740095138549805,"840":-28.855192184448242,"841":21.07723045349121,"842":28.773029327392578,"843":-25.757171630859375,"844":28.86212921142578,"845":28.78840446472168,"846":26.877685546875,"847":-21.262765884399414,"848":26.828033447265625,"849":28.802244186401367,"850":28.879352569580078,"851":28.81868553161621,"852":28.76426887512207,"853":28.89266014099121,"854":-25.511743545532227,"855":-27.6553955078125,"856":28.779964447021484,"857":28.784448623657227,"858":-28.777006149291992,"859":28.87999725341797,"860":28.8577880859375,"861":52.0218505859375,"862":-52.04145050048828,"863":-51.84297561645508,"864":52.087310791015625,"865":-51.98934555053711,"866":45.94987106323242,"867":52.007869720458984,"868":51.973060607910156,"869":51.872894287109375,"870":-51.87174987792969,"871":-52.03996658325195,"872":-48.00833511352539,"873":50.86012268066406,"874":-52.018001556396484,"875":-52.01880645751953,"876":52.049678802490234,"877":42.113525390625,"878":37.919654846191406,"879":52.03843688964844,"880":-51.99210739135742,"881":-52.061317443847656,"882":51.01381301879883,"883":52.02759552001953,"884":-52.04856872558594,"885":52.06191635131836,"886":51.988914489746094,"887":-52.069068908691406,"888":-48.71978759765625,"889":52.048797607421875,"890":51.53446960449219,"891":-52.04228591918945,"892":52.00250244140625,"893":20.91473960876465,"894":51.72674560546875,"895":51.98091125488281,"896":-51.631954193115234,"897":51.804378509521484,"898":49.65230178833008,"899":-48.67209243774414,"900":51.798797607421875,"901":29.0723934173584,"902":52.102256774902344,"903":52.03207015991211,"904":-52.02933883666992,"905":52.00991439819336,"906":51.97834777832031,"907":-52.10484313964844,"908":51.98113250732422,"909":51.99431610107422,"910":-52.07386779785156,"911":-52.012367248535156,"912":-52.06528854370117,"913":-52.06670379638672,"914":-52.040565490722656,"915":-51.99248504638672,"916":-52.04245376586914,"917":-52.053897857666016,"918":-52.042144775390625,"919":-52.013973236083984,"920":52.04720687866211,"921":-51.9997444152832,"922":-52.050140380859375,"923":52.040103912353516,"924":51.99065017700195,"925":-52.0289192199707,"926":52.035736083984375,"927":52.02702713012695,"928":52.00214767456055,"929":-52.00954055786133,"930":52.07728576660156,"931":52.07084655761719,"932":52.092002868652344,"933":52.01656723022461,"934":-51.989620208740234,"935":51.98524475097656,"936":-52.02410888671875,"937":-52.08199691772461,"938":51.99623107910156,"939":52.106788635253906,"940":-52.088985443115234,"941":52.076080322265625,"942":52.061885833740234,"943":10.29947566986084,"944":10.331212043762207,"945":10.391322135925293,"946":10.311075210571289,"947":10.337385177612305,"948":10.14448070526123,"949":10.37370777130127,"950":10.338993072509766,"951":10.292448997497559,"952":-10.358874320983887,"953":-10.328983306884766,"954":-10.339191436767578,"955":-10.366291999816895,"956":10.276923179626465,"957":-10.42300033569336,"958":-10.383835792541504,"959":10.382041931152344,"960":-10.386269569396973,"961":10.379850387573242,"962":-10.319096565246582,"963":-10.347818374633789,"964":10.35238265991211,"965":10.316285133361816,"966":-10.36482048034668,"967":10.375155448913574,"968":-10.401165008544922,"969":10.420088768005371,"970":-10.32754898071289,"971":10.421951293945312,"972":10.297347068786621,"973":10.37714672088623,"974":10.406805038452148,"975":-10.299643516540527,"976":10.414655685424805,"977":-10.369291305541992,"978":-10.353424072265625,"979":-10.342535972595215,"980":-10.29761028289795,"981":-10.393754959106445,"982":10.414118766784668,"983":10.386677742004395,"984":-51.99087142944336,"985":-51.9767951965332,"986":-52.015289306640625,"987":-50.079227447509766,"988":-52.05266571044922,"989":-51.920326232910156,"990":-52.01470947265625,"991":51.85908508300781,"992":-51.970367431640625,"993":52.050872802734375,"994":-51.85530471801758,"995":-51.05139923095703,"996":52.07432174682617,"997":-52.05609893798828,"998":52.04083251953125,"999":51.98929977416992,"1000":-52.020870208740234,"1001":52.01554870605469,"1002":-46.622802734375,"1003":51.97842788696289,"1004":52.062225341796875,"1005":-51.99987030029297,"1006":-52.065181732177734,"1007":-51.579124450683594,"1008":-52.05449295043945,"1009":51.97975158691406,"1010":-52.038726806640625,"1011":52.067352294921875,"1012":-52.03527069091797,"1013":-51.980125427246094,"1014":-52.060428619384766,"1015":-52.013248443603516,"1016":52.00321960449219,"1017":-52.09476089477539,"1018":52.020748138427734,"1019":51.994346618652344,"1020":51.956398010253906,"1021":52.04471206665039,"1022":52.061641693115234,"1023":-51.995361328125,"1024":-46.09904861450195,"1025":24.095027923583984,"1026":26.224428176879883,"1027":28.845170974731445,"1028":28.773887634277344,"1029":-28.89017105102539,"1030":28.77996063232422,"1031":23.299772262573242,"1032":-28.85776710510254,"1033":23.699386596679688,"1034":-28.78661346435547,"1035":-25.33077621459961,"1036":28.788057327270508,"1037":-24.648927688598633,"1038":-28.30270004272461,"1039":-23.857685089111328,"1040":-26.5679874420166,"1041":24.77669906616211,"1042":-24.718093872070312,"1043":28.806285858154297,"1044":-28.81537628173828,"1045":-26.85818099975586,"1046":26.85877227783203,"1047":27.691238403320312,"1048":28.795507431030273,"1049":25.990222930908203,"1050":-24.776885986328125,"1051":28.89200210571289,"1052":-22.818435668945312,"1053":23.495006561279297,"1054":-28.866607666015625,"1055":28.81528663635254,"1056":23.436952590942383,"1057":-26.972496032714844,"1058":23.874168395996094,"1059":-28.768245697021484,"1060":-26.80980682373047,"1061":-28.772872924804688,"1062":-23.838605880737305,"1063":-25.245290756225586,"1064":-28.770727157592773,"1065":-28.84666633605957,"1066":30.64134979248047,"1067":47.025142669677734,"1068":52.031394958496094,"1069":46.81538391113281,"1070":-52.09651184082031,"1071":43.41212844848633,"1072":39.36017990112305,"1073":-52.07955551147461,"1074":31.773029327392578,"1075":-32.50911331176758,"1076":-43.402591705322266,"1077":-52.0849494934082,"1078":-30.131162643432617,"1079":-46.26413345336914,"1080":-29.81476593017578,"1081":-32.24741744995117,"1082":32.914894104003906,"1083":-42.933231353759766,"1084":-52.03553771972656,"1085":-31.978954315185547,"1086":-43.814537048339844,"1087":31.367816925048828,"1088":46.776123046875,"1089":52.042449951171875,"1090":30.874164581298828,"1091":-46.08844757080078,"1092":52.004966735839844,"1093":-39.15907287597656,"1094":38.56914520263672,"1095":-52.04070281982422,"1096":44.59898376464844,"1097":40.84138488769531,"1098":-33.20294189453125,"1099":43.5795783996582,"1100":-45.50063705444336,"1101":-31.601865768432617,"1102":-52.06850814819336,"1103":-45.46210861206055,"1104":-44.20840835571289,"1105":-52.06591033935547,"1106":-52.037715911865234,"1107":-10.3729887008667,"1108":-10.337432861328125,"1109":-10.412336349487305,"1110":-10.415380477905273,"1111":10.401686668395996,"1112":10.320430755615234,"1113":10.387176513671875,"1114":10.378304481506348,"1115":10.292698860168457,"1116":10.332438468933105,"1117":-10.422118186950684,"1118":10.376076698303223,"1119":-10.410587310791016,"1120":10.316054344177246,"1121":10.38338851928711,"1122":10.361404418945312,"1123":10.425155639648438,"1124":-10.364880561828613,"1125":10.35506534576416,"1126":10.39887523651123,"1127":10.420663833618164,"1128":-10.295832633972168,"1129":-10.35478687286377,"1130":10.33322525024414,"1131":-10.424788475036621,"1132":-10.30285358428955,"1133":-10.390982627868652,"1134":-10.41358470916748,"1135":10.317023277282715,"1136":-10.306596755981445,"1137":-10.34084415435791,"1138":-10.396620750427246,"1139":10.400727272033691,"1140":-10.370410919189453,"1141":-10.37174129486084,"1142":10.385796546936035,"1143":-10.361284255981445,"1144":-10.407119750976562,"1145":10.362910270690918,"1146":10.350420951843262,"1147":10.404658317565918,"1148":-4.857625961303711,"1149":-3.8645753860473633,"1150":-3.1646173000335693,"1151":0.16738176345825195,"1152":8.330471992492676,"1153":-1.0155279636383057,"1154":0.14435608685016632,"1155":-9.87685489654541,"1156":-8.034235000610352,"1157":0.239055335521698,"1158":-0.46940386295318604,"1159":8.57865047454834,"1160":-0.7645285129547119,"1161":-0.25751176476478577,"1162":6.478977680206299,"1163":-1.2355605363845825,"1164":-3.8068394660949707,"1165":-2.4354119300842285,"1166":3.1638636589050293,"1167":8.092693328857422,"1168":5.154864311218262,"1169":-0.05448923259973526,"1170":-6.385180950164795,"1171":-1.8526182174682617,"1172":0.6105008125305176,"1173":2.874523401260376,"1174":-6.223664283752441,"1175":6.608537673950195,"1176":0.3321700692176819,"1177":-4.908220291137695,"1178":-4.136733531951904,"1179":-5.250021934509277,"1180":4.3349480628967285,"1181":-4.826555252075195,"1182":-0.614005982875824,"1183":-8.558558464050293,"1184":-7.653336524963379,"1185":5.370151996612549,"1186":6.589232921600342,"1187":-5.395373821258545,"1188":-4.8469038009643555,"1189":-51.90056610107422,"1190":-50.798789978027344,"1191":-51.81816101074219,"1192":31.92343521118164,"1193":-44.60083770751953,"1194":-51.956546783447266,"1195":-46.60057067871094,"1196":-51.31011199951172,"1197":-51.98078155517578,"1198":-51.5935173034668,"1199":-37.07612228393555,"1200":-51.9554443359375,"1201":45.560245513916016,"1202":-51.93068313598633,"1203":51.883445739746094,"1204":46.26368713378906,"1205":-52.01095199584961,"1206":51.984466552734375,"1207":33.69257736206055,"1208":51.823768615722656,"1209":51.167842864990234,"1210":-51.87895965576172,"1211":-51.63441848754883,"1212":-51.033145904541016,"1213":-51.84357452392578,"1214":51.99006271362305,"1215":-51.965309143066406,"1216":51.26509094238281,"1217":-51.98044204711914,"1218":-28.845399856567383,"1219":42.248985290527344,"1220":-51.89889144897461,"1221":51.06588363647461,"1222":41.64310836791992,"1223":50.602333068847656,"1224":52.029808044433594,"1225":45.22803497314453,"1226":51.13200759887695,"1227":51.91156768798828,"1228":49.17267990112305,"1229":51.728187561035156,"1230":-6.66804313659668,"1231":2.830028772354126,"1232":0.06870388239622116,"1233":0.5247628688812256,"1234":46.43767547607422,"1235":19.253767013549805,"1236":-39.241329193115234,"1237":46.89437484741211,"1238":-47.212039947509766,"1239":45.33238983154297,"1240":6.950345993041992,"1241":37.769474029541016,"1242":16.503467559814453,"1243":-4.949509143829346,"1244":18.30329132080078,"1245":-3.0712890625,"1246":0.2046278417110443,"1247":8.486432075500488,"1248":-37.687049865722656,"1249":44.89460754394531,"1250":30.424041748046875,"1251":-0.2151794582605362,"1252":0.1352245956659317,"1253":-32.76691818237305,"1254":-46.69252395629883,"1255":47.016510009765625,"1256":30.073474884033203,"1257":12.023784637451172,"1258":-26.943363189697266,"1259":-0.08607059717178345,"1260":-46.77239990234375,"1261":-6.585815906524658,"1262":13.529742240905762,"1263":-47.4056396484375,"1264":47.3807373046875,"1265":4.50091552734375,"1266":46.19795227050781,"1267":47.30937576293945,"1268":0.3694172501564026,"1269":46.0067253112793,"1270":-29.994626998901367,"1271":40.85280990600586,"1272":-57.693153381347656,"1273":37.495155334472656,"1274":48.400150299072266,"1275":-16.532224655151367,"1276":-59.849082946777344,"1277":32.013916015625,"1278":62.40339660644531,"1279":-85.8581771850586,"1280":-54.94476318359375,"1281":66.92120361328125,"1282":-59.53245544433594,"1283":-53.48773193359375,"1284":-39.48628616333008,"1285":-29.438650131225586,"1286":61.678680419921875,"1287":-59.6278076171875,"1288":-39.28813934326172,"1289":53.70987319946289,"1290":-52.49575424194336,"1291":-17.573034286499023,"1292":35.94003677368164,"1293":-60.095947265625,"1294":-60.726844787597656,"1295":47.89029312133789,"1296":-42.146209716796875,"1297":51.2020378112793,"1298":-41.86691665649414,"1299":44.418907165527344,"1300":-55.92420196533203,"1301":56.63999557495117,"1302":-68.58467864990234,"1303":-33.54379653930664,"1304":49.850101470947266,"1305":-54.79638671875,"1306":70.67740631103516,"1307":-44.34832000732422,"1308":-36.8338623046875,"1309":80.78783416748047,"1310":62.116737365722656,"1311":50.565582275390625,"1312":4.949942588806152,"1313":4.3172736167907715,"1314":24.372482299804688,"1315":5.35647439956665,"1316":5.466700553894043,"1317":-9.059003829956055,"1318":3.9002890586853027,"1319":8.59804916381836,"1320":-11.412922859191895,"1321":-4.098109722137451,"1322":-9.956071853637695,"1323":-5.650138854980469,"1324":-3.4186930656433105,"1325":-10.25597858428955,"1326":-3.084017515182495,"1327":-4.258950710296631,"1328":29.605457305908203,"1329":38.55017852783203,"1330":-3.4065470695495605,"1331":-2.9945976734161377,"1332":-52.028079986572266,"1333":3.6325767040252686,"1334":3.411345958709717,"1335":-6.114547252655029,"1336":7.886163711547852,"1337":-51.99193572998047,"1338":2.90708327293396,"1339":-3.760990619659424,"1340":10.962480545043945,"1341":11.798347473144531,"1342":2.8192555904388428,"1343":-12.43178939819336,"1344":30.87200927734375,"1345":3.0536670684814453,"1346":-4.043057918548584,"1347":-4.7956671714782715,"1348":4.802859783172607,"1349":45.81185531616211,"1350":-4.477870464324951,"1351":3.8798866271972656,"1352":5.371503829956055,"1353":-26.093475341796875,"1354":-3.7236862182617188,"1355":-32.10416793823242,"1356":39.93976593017578,"1357":47.65666961669922,"1358":-41.14179992675781,"1359":50.24607467651367,"1360":-19.44886589050293,"1361":30.338834762573242,"1362":-49.577667236328125,"1363":-45.02992248535156,"1364":44.868751525878906,"1365":-51.04255676269531,"1366":-37.018089294433594,"1367":-4.771290302276611,"1368":-49.97016143798828,"1369":40.31721115112305,"1370":-50.315086364746094,"1371":40.98070526123047,"1372":13.083633422851562,"1373":-10.563088417053223,"1374":49.3619270324707,"1375":-41.49760818481445,"1376":34.5201416015625,"1377":49.552207946777344,"1378":-47.68958282470703,"1379":43.630462646484375,"1380":-47.84759521484375,"1381":50.34423828125,"1382":-31.390541076660156,"1383":22.766639709472656,"1384":38.057090759277344,"1385":25.8695125579834,"1386":2.9434452056884766,"1387":-50.83672332763672,"1388":-44.26226806640625,"1389":-47.44970703125,"1390":-46.04734802246094,"1391":-42.72441482543945,"1392":-16.79989242553711,"1393":-31.070167541503906,"1394":-6.724911212921143,"1395":-6.7592291831970215,"1396":-6.457462787628174,"1397":22.64796257019043,"1398":12.016510009765625,"1399":-21.334699630737305,"1400":45.97721481323242,"1401":18.64729881286621,"1402":-9.269657135009766,"1403":-20.079612731933594,"1404":-42.28547286987305,"1405":10.379708290100098,"1406":-52.142364501953125,"1407":-50.916015625,"1408":8.260734558105469,"1409":-51.800621032714844,"1410":-6.127718925476074,"1411":52.144500732421875,"1412":6.49530553817749,"1413":8.060806274414062,"1414":8.270394325256348,"1415":39.76174545288086,"1416":-8.415645599365234,"1417":52.005638122558594,"1418":51.96760177612305,"1419":6.374077796936035,"1420":-8.115884780883789,"1421":8.511198043823242,"1422":32.86293411254883,"1423":-8.050537109375,"1424":-6.727025508880615,"1425":-7.542644500732422,"1426":6.098086833953857,"1427":-7.21281623840332,"1428":-35.27895736694336,"1429":14.28127384185791,"1430":-9.165327072143555,"1431":8.278576850891113,"1432":7.934473991394043,"1433":-15.965093612670898,"1434":-8.879085540771484,"1435":52.082637786865234,"1436":52.033687591552734,"1437":-52.08561706542969,"1438":51.992408752441406,"1439":52.0394287109375,"1440":52.04129409790039,"1441":-52.076053619384766,"1442":52.02712631225586,"1443":-52.089324951171875,"1444":52.02313232421875,"1445":52.02838134765625,"1446":-51.99554443359375,"1447":-51.98259735107422,"1448":52.10741424560547,"1449":52.02863311767578,"1450":-52.014286041259766,"1451":52.0863037109375,"1452":52.09646987915039,"1453":52.08332061767578,"1454":52.09883499145508,"1455":-52.06535339355469,"1456":-52.02512741088867,"1457":-52.009422302246094,"1458":52.0692138671875,"1459":-52.029117584228516,"1460":-52.084442138671875,"1461":-52.04587173461914,"1462":52.020999908447266,"1463":52.01323699951172,"1464":-52.05337142944336,"1465":-52.0921516418457,"1466":-52.051513671875,"1467":51.981849670410156,"1468":-52.07607650756836,"1469":52.076133728027344,"1470":52.06097412109375,"1471":52.05827331542969,"1472":-52.086490631103516,"1473":52.024925231933594,"1474":52.05103302001953,"1475":52.02388000488281,"1476":52.03065872192383,"1477":52.03677749633789,"1478":52.02665710449219,"1479":51.89013671875,"1480":-52.022727966308594,"1481":51.92059326171875,"1482":-51.711936950683594,"1483":52.09928894042969,"1484":51.468238830566406,"1485":51.796661376953125,"1486":51.955265045166016,"1487":-51.99537658691406,"1488":-52.0653190612793,"1489":-51.27109146118164,"1490":-52.008975982666016,"1491":51.9879264831543,"1492":-51.269325256347656,"1493":-47.51338195800781,"1494":-51.96161651611328,"1495":-52.003265380859375,"1496":-51.998939514160156,"1497":-51.85469055175781,"1498":51.7119140625,"1499":-52.06282043457031,"1500":52.022422790527344,"1501":-51.9599494934082,"1502":52.086952209472656,"1503":-52.10878372192383,"1504":51.98233413696289,"1505":-1.5695265531539917,"1506":52.06874084472656,"1507":51.94104766845703,"1508":-51.959373474121094,"1509":52.03400802612305,"1510":-51.91044998168945,"1511":51.86781311035156,"1512":51.28026580810547,"1513":-51.945526123046875,"1514":51.927635192871094,"1515":52.02818298339844,"1516":52.00197982788086,"1517":51.83220672607422,"1518":-32.54686737060547,"1519":51.92559051513672,"1520":32.74189376831055,"1521":-52.11058807373047,"1522":-24.926361083984375,"1523":42.65761947631836,"1524":24.107431411743164,"1525":-21.71478271484375,"1526":-27.679689407348633,"1527":34.569183349609375,"1528":-24.93388557434082,"1529":-29.280517578125,"1530":-43.96189498901367,"1531":-42.03721237182617,"1532":31.99791145324707,"1533":-26.582387924194336,"1534":-51.86173629760742,"1535":33.68924331665039,"1536":-29.746543884277344,"1537":-46.449012756347656,"1538":29.589191436767578,"1539":-33.2518424987793,"1540":-23.479907989501953,"1541":33.93214797973633,"1542":-51.86132049560547,"1543":33.39271926879883,"1544":-52.01752471923828,"1545":42.2596321105957,"1546":-33.20148849487305,"1547":26.797399520874023,"1548":-21.73091697692871,"1549":-52.02784729003906,"1550":34.654991149902344,"1551":-28.31862449645996,"1552":33.46830749511719,"1553":-52.00810623168945,"1554":-51.97201156616211,"1555":25.705188751220703,"1556":23.699026107788086,"1557":34.96540069580078,"1558":51.83734893798828,"1559":51.745052337646484,"1560":51.82551193237305,"1561":32.73956298828125,"1562":-50.857269287109375,"1563":51.51102066040039,"1564":51.71448516845703,"1565":-51.671241760253906,"1566":51.69679641723633,"1567":-48.51744842529297,"1568":-51.457618713378906,"1569":51.629207611083984,"1570":-51.52382278442383,"1571":-51.455379486083984,"1572":-51.859928131103516,"1573":-51.60440444946289,"1574":51.82948303222656,"1575":-51.63324737548828,"1576":-51.665687561035156,"1577":-51.702003479003906,"1578":-51.700714111328125,"1579":51.558448791503906,"1580":51.76881408691406,"1581":51.76654815673828,"1582":51.54322052001953,"1583":-51.81070327758789,"1584":51.5328254699707,"1585":-51.72117614746094,"1586":51.69448471069336,"1587":-45.956634521484375,"1588":51.824798583984375,"1589":51.77560806274414,"1590":-51.66315841674805,"1591":51.805240631103516,"1592":-51.314815521240234,"1593":-51.726158142089844,"1594":-51.23544692993164,"1595":-51.71503448486328,"1596":-51.80308532714844,"1597":-50.78960418701172,"1598":-38.40660095214844,"1599":-2.1655898094177246,"1600":29.884910583496094,"1601":15.167634963989258,"1602":18.212757110595703,"1603":2.6141748428344727,"1604":-15.350526809692383,"1605":28.964139938354492,"1606":2.7527804374694824,"1607":15.8894624710083,"1608":-7.491621017456055,"1609":-1.000749945640564,"1610":-3.778287410736084,"1611":-3.5100998878479004,"1612":-14.930774688720703,"1613":-21.29636573791504,"1614":-7.703254222869873,"1615":5.423089504241943,"1616":-16.367233276367188,"1617":-7.145984649658203,"1618":-3.334378242492676,"1619":-14.079996109008789,"1620":6.712399005889893,"1621":20.892065048217773,"1622":-4.962119102478027,"1623":-1.526777982711792,"1624":-12.72260856628418,"1625":16.926895141601562,"1626":-12.273269653320312,"1627":-1.4256724119186401,"1628":-4.628941059112549,"1629":9.88668441772461,"1630":18.187297821044922,"1631":-3.0799548625946045,"1632":16.197052001953125,"1633":-21.950355529785156,"1634":4.210152626037598,"1635":13.709134101867676,"1636":-7.498205184936523,"1637":-7.557989120483398,"1638":18.854421615600586,"1639":22.401391983032227,"1640":1.3471524715423584,"1641":-17.69138526916504,"1642":-0.6866681575775146,"1643":17.42351722717285,"1644":-17.006671905517578,"1645":-9.874542236328125,"1646":-17.310699462890625,"1647":5.130829811096191,"1648":-5.860288619995117,"1649":16.892499923706055,"1650":-15.717157363891602,"1651":-2.4205029010772705,"1652":16.76015281677246,"1653":-2.571653127670288,"1654":-1.5913735628128052,"1655":18.10327911376953,"1656":-7.121807098388672,"1657":0.4826754331588745,"1658":-3.2337865829467773,"1659":14.729517936706543,"1660":14.365612030029297,"1661":-9.840002059936523,"1662":-5.495293140411377,"1663":-5.829640865325928,"1664":-5.861578941345215,"1665":12.065134048461914,"1666":-2.9666025638580322,"1667":17.362285614013672,"1668":-0.2705322802066803,"1669":-5.258867263793945,"1670":-17.901906967163086,"1671":-1.6695873737335205,"1672":15.865224838256836,"1673":-17.7595272064209,"1674":9.701669692993164,"1675":17.907230377197266,"1676":16.370059967041016,"1677":14.983104705810547,"1678":3.656911849975586,"1679":-14.552308082580566,"1680":2.5475099086761475,"1681":0.02697545476257801,"1682":-0.004973383154720068,"1683":0.0024864873848855495,"1684":0.009776623919606209,"1685":0.044334784150123596,"1686":0.06540409475564957,"1687":-0.039514027535915375,"1688":0.034109022468328476,"1689":-0.000867760565597564,"1690":-0.010697140358388424,"1691":-0.04355727136135101,"1692":0.02636863850057125,"1693":-0.008716816082596779,"1694":-0.06289906799793243,"1695":0.0395389087498188,"1696":0.04516447335481644,"1697":-0.027059225365519524,"1698":0.038342494517564774,"1699":-0.04076812416315079,"1700":-0.047504816204309464,"1701":-0.036329928785562515,"1702":-0.004796170629560947,"1703":0.030565954744815826,"1704":0.004722411744296551,"1705":-0.06304614990949631,"1706":-0.019153164699673653,"1707":-0.05359017103910446,"1708":-0.057981427758932114,"1709":0.05145547538995743,"1710":0.011352396570146084,"1711":-0.03454136848449707,"1712":0.026733282953500748,"1713":0.06273740530014038,"1714":-0.06530746817588806,"1715":-0.0109628327190876,"1716":-0.012729395180940628,"1717":-0.00315029826015234,"1718":-0.05631103739142418,"1719":-0.02629772573709488,"1720":0.0009093895787373185,"1721":-0.023276425898075104}},"hiddenLayers":[{"inputMatrix":{"rows":20,"columns":41,"weights":{"0":2.3531529903411865,"1":-6.24351167678833,"2":8.137358665466309,"3":-7.0913190841674805,"4":-8.466300010681152,"5":9.096755981445312,"6":-7.935408115386963,"7":-4.537872791290283,"8":9.12792682647705,"9":8.500550270080566,"10":3.9119412899017334,"11":9.302360534667969,"12":9.767992973327637,"13":4.629238605499268,"14":5.596249103546143,"15":7.332088470458984,"16":1.4073457717895508,"17":-8.124747276306152,"18":7.849748611450195,"19":8.87451171875,"20":-8.9606351852417,"21":-8.859164237976074,"22":-3.4344677925109863,"23":8.317615509033203,"24":4.927986145019531,"25":-7.660622596740723,"26":-8.398296356201172,"27":6.466406345367432,"28":6.3348708152771,"29":5.340492248535156,"30":-9.434677124023438,"31":9.412221908569336,"32":-9.614248275756836,"33":-9.59300708770752,"34":9.463342666625977,"35":-1.3192405700683594,"36":-8.303728103637695,"37":-7.2169108390808105,"38":2.804551362991333,"39":-8.053912162780762,"40":-6.78936767578125,"41":17.524450302124023,"42":20.577558517456055,"43":17.590354919433594,"44":-1.575268268585205,"45":-17.357498168945312,"46":-5.247925281524658,"47":1.4735630750656128,"48":-18.802162170410156,"49":9.967042922973633,"50":4.515957832336426,"51":-21.40410614013672,"52":-7.002768039703369,"53":1.8244775533676147,"54":-20.35828971862793,"55":1.7587662935256958,"56":-16.916046142578125,"57":-0.8307996392250061,"58":-0.8474690318107605,"59":-5.309690475463867,"60":5.2444987297058105,"61":-21.28806495666504,"62":15.795777320861816,"63":-0.8662402033805847,"64":-1.1060519218444824,"65":5.355227947235107,"66":-3.107064962387085,"67":11.287250518798828,"68":-2.103161573410034,"69":8.373684883117676,"70":-11.736921310424805,"71":-10.04499340057373,"72":20.9831485748291,"73":-15.531881332397461,"74":5.651139259338379,"75":1.964737892150879,"76":-13.973251342773438,"77":4.463377952575684,"78":-13.586053848266602,"79":-18.726806640625,"80":5.24888277053833,"81":-6.584342956542969,"82":13.989453315734863,"83":13.262032508850098,"84":16.58942413330078,"85":-12.507611274719238,"86":9.255298614501953,"87":13.931370735168457,"88":4.47219705581665,"89":-0.8283466100692749,"90":12.713761329650879,"91":13.992183685302734,"92":9.519486427307129,"93":13.721647262573242,"94":-9.362807273864746,"95":14.114814758300781,"96":-20.475780487060547,"97":-5.259878635406494,"98":17.867128372192383,"99":-15.373327255249023,"100":-6.5019378662109375,"101":-10.711849212646484,"102":-13.645971298217773,"103":11.003756523132324,"104":4.375215530395508,"105":12.68984603881836,"106":8.573385238647461,"107":-17.10057830810547,"108":20.023637771606445,"109":-9.929800987243652,"110":15.299834251403809,"111":-3.852552890777588,"112":10.191640853881836,"113":18.762693405151367,"114":-5.194699287414551,"115":13.246002197265625,"116":-11.819802284240723,"117":-15.710556030273438,"118":-7.170094013214111,"119":-9.844820976257324,"120":-17.13553810119629,"121":1.2072100639343262,"122":-4.66362190246582,"123":13.061132431030273,"124":10.465062141418457,"125":8.151810646057129,"126":14.585375785827637,"127":-8.863743782043457,"128":6.958468437194824,"129":-2.7973620891571045,"130":13.820910453796387,"131":8.50654411315918,"132":4.001880645751953,"133":7.859967231750488,"134":-13.38597583770752,"135":-16.480655670166016,"136":-12.080953598022461,"137":-15.736356735229492,"138":8.01268196105957,"139":-10.536797523498535,"140":-10.673009872436523,"141":-6.841080188751221,"142":-15.825865745544434,"143":-13.653024673461914,"144":-4.55439567565918,"145":-7.488269805908203,"146":-15.407466888427734,"147":14.653343200683594,"148":-8.80702018737793,"149":14.650421142578125,"150":-16.131980895996094,"151":15.51229476928711,"152":-9.36719036102295,"153":12.399582862854004,"154":-0.7639166712760925,"155":-9.918842315673828,"156":14.246532440185547,"157":-15.004088401794434,"158":5.914033889770508,"159":-7.69969367980957,"160":-8.6979341506958,"161":8.987884521484375,"162":14.284725189208984,"163":12.02218246459961,"164":-4.736201763153076,"165":-3.098891019821167,"166":-8.00341796875,"167":4.79100227355957,"168":12.223980903625488,"169":-6.7574687004089355,"170":14.25946044921875,"171":-13.296951293945312,"172":3.7727737426757812,"173":-7.52357292175293,"174":-6.175838470458984,"175":11.403133392333984,"176":-18.589599609375,"177":-2.61443829536438,"178":7.086805820465088,"179":-14.594980239868164,"180":-2.1611826419830322,"181":-11.279486656188965,"182":3.0172510147094727,"183":2.7684335708618164,"184":11.818652153015137,"185":17.642255783081055,"186":-9.509208679199219,"187":4.44496488571167,"188":4.250057697296143,"189":1.1666110754013062,"190":-4.841936111450195,"191":-5.866065502166748,"192":7.619894027709961,"193":-10.72753620147705,"194":-0.7308460474014282,"195":-13.84341049194336,"196":11.050488471984863,"197":-2.135767698287964,"198":-18.34490394592285,"199":-4.510069847106934,"200":-12.51203727722168,"201":-5.922902584075928,"202":2.2756543159484863,"203":-9.243695259094238,"204":-12.536104202270508,"205":4.956461429595947,"206":0.6520545482635498,"207":-0.05862908065319061,"208":5.034528732299805,"209":1.7510277032852173,"210":-4.93665885925293,"211":5.479972839355469,"212":1.2312242984771729,"213":-6.59656286239624,"214":-8.073031425476074,"215":-3.347355842590332,"216":-5.843288421630859,"217":-8.455913543701172,"218":-5.632981777191162,"219":-4.125171184539795,"220":-7.57441520690918,"221":-3.008429527282715,"222":-2.8684375286102295,"223":-1.9903563261032104,"224":-7.653357982635498,"225":2.0843513011932373,"226":6.849055290222168,"227":2.137006998062134,"228":-7.0817670822143555,"229":2.0533108711242676,"230":2.4375128746032715,"231":8.851679801940918,"232":-7.03422212600708,"233":2.2501425743103027,"234":-1.7074815034866333,"235":7.054228782653809,"236":-4.612606048583984,"237":1.6090368032455444,"238":3.110750913619995,"239":-8.063820838928223,"240":-5.636137008666992,"241":3.589962959289551,"242":1.7317140102386475,"243":-5.628993511199951,"244":4.9290337562561035,"245":4.209128379821777,"246":1.8352028131484985,"247":-18.387496948242188,"248":5.306960582733154,"249":15.79570198059082,"250":-15.658446311950684,"251":-12.220076560974121,"252":-15.692577362060547,"253":-5.955537796020508,"254":-0.31293943524360657,"255":12.137042045593262,"256":-15.8524169921875,"257":2.708669900894165,"258":18.532888412475586,"259":2.4733078479766846,"260":-3.086398124694824,"261":15.707809448242188,"262":-0.15993179380893707,"263":-1.5259127616882324,"264":6.433616638183594,"265":13.170795440673828,"266":18.69582748413086,"267":0.5080920457839966,"268":6.856327533721924,"269":-0.4348253309726715,"270":3.8846755027770996,"271":17.350513458251953,"272":3.260370969772339,"273":18.424396514892578,"274":1.6181259155273438,"275":3.271606206893921,"276":-14.927810668945312,"277":1.00091552734375,"278":18.730037689208984,"279":-13.205023765563965,"280":1.0401772260665894,"281":18.951496124267578,"282":17.697797775268555,"283":18.737367630004883,"284":-4.038545608520508,"285":-11.397624969482422,"286":-7.221796989440918,"287":-10.20262622833252,"288":-28.442420959472656,"289":-20.243452072143555,"290":-3.484010934829712,"291":4.912265777587891,"292":-11.157161712646484,"293":12.8303861618042,"294":3.9613451957702637,"295":-3.8190724849700928,"296":0.08211009204387665,"297":-9.759988784790039,"298":5.172687530517578,"299":-12.334949493408203,"300":2.249114751815796,"301":24.97489356994629,"302":-11.921717643737793,"303":-30.759342193603516,"304":10.454752922058105,"305":30.021835327148438,"306":16.25127601623535,"307":6.518364429473877,"308":12.16692066192627,"309":-6.953770160675049,"310":4.832161903381348,"311":10.778471946716309,"312":30.92180633544922,"313":-7.068567752838135,"314":7.3728437423706055,"315":-5.683365345001221,"316":-27.330486297607422,"317":-10.85806655883789,"318":-27.26540756225586,"319":23.873172760009766,"320":-9.650646209716797,"321":3.102872848510742,"322":-0.43756040930747986,"323":-24.793798446655273,"324":25.17832374572754,"325":26.36846351623535,"326":0.477681040763855,"327":-25.654064178466797,"328":-5.431987762451172,"329":-5.90993070602417,"330":-6.1890106201171875,"331":-2.8290491104125977,"332":7.279714107513428,"333":-2.121243476867676,"334":9.81879997253418,"335":-3.6171748638153076,"336":5.653378963470459,"337":-6.077694416046143,"338":-6.349746227264404,"339":9.137242317199707,"340":-13.372386932373047,"341":1.2454549074172974,"342":5.407284259796143,"343":-7.372912883758545,"344":2.246485948562622,"345":-13.94302749633789,"346":10.227225303649902,"347":6.117725849151611,"348":2.3333323001861572,"349":-2.5443570613861084,"350":-9.936258316040039,"351":12.71654987335205,"352":6.2246294021606445,"353":-7.829018592834473,"354":-3.956171989440918,"355":-9.763331413269043,"356":12.618583679199219,"357":-6.174522876739502,"358":-6.059568405151367,"359":0.28473469614982605,"360":4.308917045593262,"361":-6.432115077972412,"362":-13.377967834472656,"363":0.8414930105209351,"364":-11.567445755004883,"365":-15.403724670410156,"366":-0.15699395537376404,"367":-5.326423168182373,"368":-6.04597806930542,"369":-2.6494011878967285,"370":6.262006759643555,"371":-16.422208786010742,"372":-16.78367042541504,"373":3.1843619346618652,"374":16.984853744506836,"375":2.28434681892395,"376":-12.74605655670166,"377":16.08035659790039,"378":19.69098472595215,"379":13.047472953796387,"380":-8.301353454589844,"381":20.347171783447266,"382":-11.734576225280762,"383":-12.594801902770996,"384":-1.8087105751037598,"385":12.811455726623535,"386":-8.23447322845459,"387":-7.367763996124268,"388":20.809412002563477,"389":-15.642414093017578,"390":-20.67231559753418,"391":2.5557773113250732,"392":16.57024574279785,"393":-14.778797149658203,"394":-14.626973152160645,"395":-0.7767557501792908,"396":18.134916305541992,"397":4.404675483703613,"398":10.137669563293457,"399":-16.81507110595703,"400":-12.127842903137207,"401":-16.413646697998047,"402":-19.77861213684082,"403":20.375362396240234,"404":15.623636245727539,"405":3.5653421878814697,"406":-15.089426040649414,"407":-3.0812976360321045,"408":-16.84016990661621,"409":12.816462516784668,"410":9.830999374389648,"411":9.674551010131836,"412":9.37086296081543,"413":-5.725621700286865,"414":-4.315857887268066,"415":9.390462875366211,"416":9.130439758300781,"417":-9.008628845214844,"418":10.167529106140137,"419":2.9685251712799072,"420":-4.197727680206299,"421":9.344348907470703,"422":-8.577459335327148,"423":-0.7775419354438782,"424":-9.3299560546875,"425":-9.11541748046875,"426":9.635235786437988,"427":-9.999968528747559,"428":2.966057777404785,"429":3.2005932331085205,"430":-9.838332176208496,"431":5.381801605224609,"432":6.591954231262207,"433":9.921243667602539,"434":8.608126640319824,"435":-10.070976257324219,"436":1.2907501459121704,"437":-10.197956085205078,"438":9.8804349899292,"439":4.387081623077393,"440":-2.4113829135894775,"441":10.1690034866333,"442":-9.933825492858887,"443":7.59962272644043,"444":-5.412286281585693,"445":-9.564339637756348,"446":-9.492311477661133,"447":-10.089702606201172,"448":-9.484289169311523,"449":-8.732606887817383,"450":-6.277923583984375,"451":-6.448153018951416,"452":-5.100927829742432,"453":-4.896430969238281,"454":-3.1407861709594727,"455":6.210812568664551,"456":-5.388968467712402,"457":-6.510079860687256,"458":3.704399585723877,"459":-9.141817092895508,"460":-0.22575801610946655,"461":6.959902763366699,"462":-1.833519458770752,"463":-3.519948959350586,"464":6.215367317199707,"465":6.33211612701416,"466":3.2525222301483154,"467":-6.709280014038086,"468":7.3984904289245605,"469":-3.8323450088500977,"470":-2.983635425567627,"471":5.078943729400635,"472":3.1745004653930664,"473":-3.2550811767578125,"474":-5.389472007751465,"475":-5.693290710449219,"476":6.850917816162109,"477":4.139273166656494,"478":5.601404666900635,"479":-7.979288101196289,"480":4.321083068847656,"481":5.57422399520874,"482":-9.532645225524902,"483":6.0667195320129395,"484":-4.294560432434082,"485":-2.739727735519409,"486":1.2160379886627197,"487":4.249161720275879,"488":7.523077011108398,"489":6.172358512878418,"490":5.530583381652832,"491":2.1813619136810303,"492":-9.185948371887207,"493":-9.036724090576172,"494":-7.815641403198242,"495":4.205652713775635,"496":-0.5922901630401611,"497":-7.782437324523926,"498":-8.520896911621094,"499":7.511226654052734,"500":-9.676956176757812,"501":1.7552781105041504,"502":4.152484893798828,"503":-7.620206832885742,"504":8.554388046264648,"505":0.4160488247871399,"506":8.389447212219238,"507":8.5307035446167,"508":-8.967283248901367,"509":9.424029350280762,"510":1.7150636911392212,"511":1.0045242309570312,"512":8.399409294128418,"513":-7.102665901184082,"514":-6.07550048828125,"515":-9.578770637512207,"516":-5.7667059898376465,"517":9.69803524017334,"518":-3.1345198154449463,"519":10.0336275100708,"520":-8.986966133117676,"521":-1.2159795761108398,"522":-5.493888854980469,"523":-9.602346420288086,"524":9.127287864685059,"525":-7.9807515144348145,"526":6.494770050048828,"527":8.870094299316406,"528":8.319356918334961,"529":9.796418190002441,"530":8.673562049865723,"531":7.094485282897949,"532":4.759254455566406,"533":-15.692256927490234,"534":-14.909257888793945,"535":-14.852775573730469,"536":-0.15638390183448792,"537":-0.5252035856246948,"538":-6.994643688201904,"539":-4.906119346618652,"540":-6.311483383178711,"541":-2.215402603149414,"542":0.9018959403038025,"543":-2.1911461353302,"544":-1.447448492050171,"545":6.667877197265625,"546":-3.7205045223236084,"547":15.832232475280762,"548":-0.08245746791362762,"549":-12.520626068115234,"550":0.20088493824005127,"551":13.139531135559082,"552":13.843835830688477,"553":15.881759643554688,"554":-4.637997150421143,"555":-16.816246032714844,"556":3.7734670639038086,"557":-7.2539896965026855,"558":11.968652725219727,"559":-15.021236419677734,"560":11.395771980285645,"561":-3.704340934753418,"562":-13.665501594543457,"563":-17.023298263549805,"564":-13.64719009399414,"565":11.943222999572754,"566":-17.4936580657959,"567":1.447679042816162,"568":10.536392211914062,"569":-5.2512946128845215,"570":8.812453269958496,"571":9.482901573181152,"572":-15.301955223083496,"573":-12.189613342285156,"574":-0.6773401498794556,"575":0.6049346923828125,"576":-4.685905456542969,"577":0.5910331010818481,"578":7.275826454162598,"579":-5.8521013259887695,"580":1.4445828199386597,"581":4.401251792907715,"582":-8.130561828613281,"583":-6.327227592468262,"584":5.06886100769043,"585":-2.9682130813598633,"586":-8.847182273864746,"587":5.153834342956543,"588":-2.197049379348755,"589":-2.7471063137054443,"590":-3.8003721237182617,"591":4.5299530029296875,"592":-3.70981502532959,"593":-7.775695323944092,"594":1.5086051225662231,"595":8.244274139404297,"596":1.222243309020996,"597":-5.866300106048584,"598":-1.1726181507110596,"599":4.410067081451416,"600":7.701875686645508,"601":-6.315646171569824,"602":-3.406259059906006,"603":4.690499782562256,"604":7.962398052215576,"605":-8.531505584716797,"606":4.6444292068481445,"607":3.1443684101104736,"608":-7.838120460510254,"609":-5.531548976898193,"610":4.860620498657227,"611":5.377628326416016,"612":1.1169428825378418,"613":6.498967170715332,"614":2.614617109298706,"615":-8.466773986816406,"616":-6.05579948425293,"617":-8.606531143188477,"618":-0.29510489106178284,"619":8.306114196777344,"620":-8.232901573181152,"621":-7.318474769592285,"622":7.5865936279296875,"623":-9.868135452270508,"624":-5.625181198120117,"625":7.368908405303955,"626":-7.832952499389648,"627":-6.753534317016602,"628":7.696667671203613,"629":6.725805759429932,"630":6.227358818054199,"631":-8.131601333618164,"632":9.236894607543945,"633":-2.3352651596069336,"634":-6.7623796463012695,"635":7.591660499572754,"636":5.514448165893555,"637":-5.288248062133789,"638":-9.098734855651855,"639":-6.778594970703125,"640":8.693060874938965,"641":7.276308536529541,"642":8.406320571899414,"643":-8.83978271484375,"644":0.963289737701416,"645":8.434988975524902,"646":-9.945504188537598,"647":9.26936149597168,"648":-2.801527976989746,"649":-7.551270484924316,"650":2.9596078395843506,"651":8.078095436096191,"652":9.2111177444458,"653":8.082734107971191,"654":8.689949035644531,"655":4.240070343017578,"656":9.529688835144043,"657":8.734029769897461,"658":8.938852310180664,"659":1.6361052989959717,"660":-5.804677963256836,"661":8.279120445251465,"662":9.38448715209961,"663":-9.34837818145752,"664":9.71690559387207,"665":5.806155681610107,"666":-6.484422206878662,"667":8.181254386901855,"668":-8.343026161193848,"669":-6.771788120269775,"670":-8.760201454162598,"671":-8.746516227722168,"672":9.157444953918457,"673":-9.35525894165039,"674":-6.693000316619873,"675":-6.07561731338501,"676":-6.467301845550537,"677":6.727582931518555,"678":6.9212422370910645,"679":9.005328178405762,"680":7.0862507820129395,"681":-8.97317886352539,"682":-3.1161208152770996,"683":-9.882599830627441,"684":8.547744750976562,"685":0.0710134208202362,"686":2.167681932449341,"687":9.422845840454102,"688":-9.44820785522461,"689":9.11210823059082,"690":-3.3320510387420654,"691":-4.976642608642578,"692":-7.253675937652588,"693":-9.463380813598633,"694":-9.265249252319336,"695":-8.291866302490234,"696":-2.90283465385437,"697":12.489899635314941,"698":-12.631295204162598,"699":-12.857666015625,"700":-5.594264030456543,"701":9.542664527893066,"702":6.759317874908447,"703":-5.040982723236084,"704":14.53889274597168,"705":10.605881690979004,"706":-17.313817977905273,"707":7.74336051940918,"708":-14.046659469604492,"709":-15.411998748779297,"710":7.324315547943115,"711":-15.673921585083008,"712":-11.831735610961914,"713":7.322432518005371,"714":8.56619644165039,"715":-5.431553363800049,"716":-14.817558288574219,"717":5.058078289031982,"718":14.706974983215332,"719":-8.012022972106934,"720":-16.205211639404297,"721":16.420345306396484,"722":11.166114807128906,"723":11.31658935546875,"724":5.318571090698242,"725":-4.045359134674072,"726":-9.192731857299805,"727":9.477071762084961,"728":-5.844438552856445,"729":-11.534918785095215,"730":-7.705075263977051,"731":5.890988349914551,"732":-15.10982894897461,"733":11.527137756347656,"734":12.02773666381836,"735":11.434556007385254,"736":11.303234100341797,"737":-7.94755744934082,"738":-17.666521072387695,"739":-17.37026596069336,"740":-16.394441604614258,"741":-9.44465160369873,"742":12.693731307983398,"743":4.6700053215026855,"744":3.013561964035034,"745":17.347230911254883,"746":1.7988883256912231,"747":8.560046195983887,"748":-4.504632472991943,"749":6.918583393096924,"750":-5.654313087463379,"751":14.434309959411621,"752":16.36285400390625,"753":16.789609909057617,"754":2.6675524711608887,"755":-3.2857093811035156,"756":14.457547187805176,"757":10.74805736541748,"758":11.852185249328613,"759":-13.066696166992188,"760":-14.76518726348877,"761":2.1710970401763916,"762":-11.353992462158203,"763":-2.172708511352539,"764":-8.279608726501465,"765":-1.5763596296310425,"766":4.200909614562988,"767":-6.382143497467041,"768":-14.968132019042969,"769":-18.186689376831055,"770":15.891191482543945,"771":-17.938148498535156,"772":-8.212745666503906,"773":13.156333923339844,"774":-5.025244235992432,"775":-1.4339207410812378,"776":17.613473892211914,"777":16.68406105041504,"778":13.442933082580566,"779":9.233314514160156,"780":9.218260765075684,"781":10.24767017364502,"782":2.136078357696533,"783":-4.16597843170166,"784":6.022831916809082,"785":10.244606018066406,"786":-8.903640747070312,"787":9.015161514282227,"788":-4.146707534790039,"789":-7.497251510620117,"790":8.082408905029297,"791":-9.97852611541748,"792":-8.187148094177246,"793":-11.210373878479004,"794":-9.904069900512695,"795":10.2365140914917,"796":-10.201971054077148,"797":-6.699671745300293,"798":-8.214895248413086,"799":-8.399978637695312,"800":9.212425231933594,"801":8.032890319824219,"802":9.198274612426758,"803":9.312545776367188,"804":-10.68216609954834,"805":7.81825065612793,"806":-9.84768295288086,"807":10.850006103515625,"808":-3.214796781539917,"809":9.60323715209961,"810":10.710941314697266,"811":-8.11093521118164,"812":10.884775161743164,"813":-8.733057022094727,"814":-9.08696174621582,"815":-7.278186798095703,"816":-8.983172416687012,"817":-10.427062034606934,"818":-5.399941444396973,"819":-1.6470297574996948}},"inputHidden":{"rows":20,"columns":20,"weights":{"0":9.333687782287598,"1":9.206304550170898,"2":-8.670394897460938,"3":5.059070110321045,"4":8.974016189575195,"5":8.402802467346191,"6":8.104086875915527,"7":-9.003292083740234,"8":-8.967759132385254,"9":-7.673828125,"10":9.093818664550781,"11":9.00904369354248,"12":-9.148468971252441,"13":-9.071279525756836,"14":9.037093162536621,"15":-9.285862922668457,"16":-8.782938003540039,"17":-9.324338912963867,"18":-9.16975212097168,"19":-7.4852294921875,"20":9.33916187286377,"21":-2.767301321029663,"22":3.086907148361206,"23":6.442984104156494,"24":7.351124286651611,"25":3.2878365516662598,"26":15.655193328857422,"27":-16.455684661865234,"28":-3.526289701461792,"29":-13.151177406311035,"30":16.91905975341797,"31":17.078083038330078,"32":4.186230659484863,"33":-4.380624294281006,"34":6.187071800231934,"35":-17.482267379760742,"36":16.330673217773438,"37":-7.229540824890137,"38":3.353694438934326,"39":14.809759140014648,"40":4.108835220336914,"41":-19.07857894897461,"42":1.6717274188995361,"43":3.362514019012451,"44":-0.05775241553783417,"45":-4.012973308563232,"46":-1.0557310581207275,"47":-1.7394347190856934,"48":-0.5273654460906982,"49":-9.9403715133667,"50":5.7667436599731445,"51":0.19014288485050201,"52":0.26703405380249023,"53":9.318366050720215,"54":0.3758503794670105,"55":0.3443581759929657,"56":10.257905006408691,"57":10.628512382507324,"58":0.4881381690502167,"59":10.458752632141113,"60":6.384820938110352,"61":9.171122550964355,"62":11.590813636779785,"63":2.1333999633789062,"64":-1.1308165788650513,"65":-12.18968391418457,"66":2.479504108428955,"67":-9.039131164550781,"68":-5.929014205932617,"69":-9.471969604492188,"70":9.733881950378418,"71":3.696385383605957,"72":6.939932823181152,"73":11.380785942077637,"74":-1.6431047916412354,"75":-3.5282061100006104,"76":14.560562133789062,"77":-9.104881286621094,"78":-3.6132469177246094,"79":12.702727317810059,"80":-17.011171340942383,"81":4.459958553314209,"82":-4.417039394378662,"83":1.1267699003219604,"84":-5.551734447479248,"85":-6.787716388702393,"86":-5.0468621253967285,"87":6.530264854431152,"88":18.656694412231445,"89":12.686639785766602,"90":-15.201604843139648,"91":-5.590482234954834,"92":6.193093776702881,"93":8.656698226928711,"94":-5.865169525146484,"95":6.368409633636475,"96":-1.790352702140808,"97":6.293427467346191,"98":6.1134419441223145,"99":-2.6266653537750244,"100":11.754508972167969,"101":11.654593467712402,"102":7.856905937194824,"103":-8.332712173461914,"104":2.7421014308929443,"105":-5.888299465179443,"106":5.076756000518799,"107":-12.03941535949707,"108":-10.827000617980957,"109":-4.714236736297607,"110":11.40648365020752,"111":5.213641166687012,"112":1.6867926120758057,"113":-3.833621025085449,"114":-0.5228271484375,"115":-3.108536720275879,"116":-10.575310707092285,"117":-11.20834732055664,"118":0.46521544456481934,"119":10.571724891662598,"120":-4.61336088180542,"121":-5.2851972579956055,"122":11.62005615234375,"123":-8.370521545410156,"124":-5.821686267852783,"125":-8.555387496948242,"126":-7.538656234741211,"127":8.543447494506836,"128":-1.508705973625183,"129":1.5942604541778564,"130":-5.185469150543213,"131":-8.823848724365234,"132":8.782997131347656,"133":4.216148853302002,"134":-8.678401947021484,"135":8.9996976852417,"136":7.545234203338623,"137":8.824522018432617,"138":8.749667167663574,"139":5.421307563781738,"140":2.210190534591675,"141":6.147547721862793,"142":-14.661916732788086,"143":-6.9097676277160645,"144":15.081323623657227,"145":-6.067559242248535,"146":13.662006378173828,"147":-13.448797225952148,"148":11.581456184387207,"149":8.435953140258789,"150":4.554011344909668,"151":13.664471626281738,"152":5.076882839202881,"153":-9.084505081176758,"154":14.517828941345215,"155":-14.028745651245117,"156":-19.404556274414062,"157":-15.937919616699219,"158":4.522644519805908,"159":0.13141986727714539,"160":-12.342019081115723,"161":7.521265029907227,"162":-11.653907775878906,"163":1.360456943511963,"164":-2.9304423332214355,"165":10.227346420288086,"166":-1.1221951246261597,"167":10.834759712219238,"168":7.4710917472839355,"169":10.890317916870117,"170":-13.578543663024902,"171":-11.534770965576172,"172":-10.064774513244629,"173":4.043211936950684,"174":10.08684253692627,"175":-9.247503280639648,"176":-8.47515869140625,"177":0.711132824420929,"178":-9.379313468933105,"179":-12.103426933288574,"180":10.619492530822754,"181":19.754369735717773,"182":17.123920440673828,"183":-18.93964958190918,"184":0.6272109746932983,"185":-20.941495895385742,"186":-8.759079933166504,"187":11.436467170715332,"188":-14.5165433883667,"189":-21.310611724853516,"190":19.01259422302246,"191":-9.896801948547363,"192":-11.442930221557617,"193":6.512977600097656,"194":0.8240954279899597,"195":10.03088665008545,"196":-16.198684692382812,"197":-19.87375259399414,"198":9.335613250732422,"199":16.117727279663086,"200":9.952149391174316,"201":10.011159896850586,"202":-9.992911338806152,"203":9.199369430541992,"204":9.971033096313477,"205":9.97986125946045,"206":9.805245399475098,"207":-9.994487762451172,"208":-9.352798461914062,"209":-8.62711238861084,"210":9.979584693908691,"211":10.009902954101562,"212":-10.032626152038574,"213":-9.394968032836914,"214":9.940531730651855,"215":-10.040414810180664,"216":-9.049039840698242,"217":-10.118112564086914,"218":-10.004768371582031,"219":-6.277308940887451,"220":-3.9841248989105225,"221":-4.903615951538086,"222":7.669609069824219,"223":-1.786361813545227,"224":-6.521280765533447,"225":-5.716619491577148,"226":-5.60371208190918,"227":6.357325077056885,"228":2.314786911010742,"229":3.5484254360198975,"230":-4.589904308319092,"231":-6.310678482055664,"232":6.352656841278076,"233":4.879148960113525,"234":-6.235602855682373,"235":6.818530559539795,"236":5.820410251617432,"237":6.750626087188721,"238":6.6405768394470215,"239":5.022441864013672,"240":-9.648981094360352,"241":-9.778558731079102,"242":9.766670227050781,"243":-8.904903411865234,"244":-9.790724754333496,"245":-9.815035820007324,"246":-9.522879600524902,"247":9.812524795532227,"248":8.032144546508789,"249":7.812297821044922,"250":-9.774341583251953,"251":-9.865093231201172,"252":9.875100135803223,"253":8.021084785461426,"254":-9.833154678344727,"255":9.900986671447754,"256":7.163315296173096,"257":9.873259544372559,"258":9.853334426879883,"259":2.377206563949585,"260":-10.097878456115723,"261":3.401526927947998,"262":-3.603809118270874,"263":-7.040323257446289,"264":-6.989791393280029,"265":-3.9489665031433105,"266":-14.895735740661621,"267":15.669814109802246,"268":5.8524065017700195,"269":10.60694408416748,"270":-17.411792755126953,"271":-16.739131927490234,"272":-3.4392805099487305,"273":4.0481743812561035,"274":-6.442275524139404,"275":16.80824851989746,"276":-16.505767822265625,"277":7.191527366638184,"278":16.700119018554688,"279":-16.398576736450195,"280":-4.880218982696533,"281":-3.844943046569824,"282":3.4807894229888916,"283":2.8402767181396484,"284":-3.912034034729004,"285":-2.1657650470733643,"286":-3.402707576751709,"287":3.789555072784424,"288":5.411202907562256,"289":2.6839070320129395,"290":-3.2501540184020996,"291":-3.7490158081054688,"292":3.98978853225708,"293":5.273969650268555,"294":-3.7621593475341797,"295":3.9938371181488037,"296":4.860456466674805,"297":4.113828659057617,"298":4.232550144195557,"299":3.4124557971954346,"300":-9.467756271362305,"301":-9.467137336730957,"302":9.431568145751953,"303":-5.422319412231445,"304":-9.477367401123047,"305":-9.274703979492188,"306":-9.019890785217285,"307":9.454882621765137,"308":9.281461715698242,"309":6.864030838012695,"310":-9.298908233642578,"311":-9.544254302978516,"312":9.537164688110352,"313":9.311758995056152,"314":-9.442337989807129,"315":9.626936912536621,"316":9.057661056518555,"317":9.567700386047363,"318":9.506630897521973,"319":7.354444980621338,"320":-6.325582504272461,"321":-6.413932800292969,"322":6.233371734619141,"323":0.6159980893135071,"324":-6.841317176818848,"325":-5.523710250854492,"326":-6.20477819442749,"327":5.879420757293701,"328":0.1953071504831314,"329":4.623802661895752,"330":-6.5060319900512695,"331":-6.691427230834961,"332":6.258004188537598,"333":-0.9491168260574341,"334":-6.33860969543457,"335":7.0496368408203125,"336":-2.1551358699798584,"337":6.66304874420166,"338":6.704992294311523,"339":-1.8972256183624268,"340":8.69002628326416,"341":11.108823776245117,"342":9.28858757019043,"343":-8.21860122680664,"344":10.231099128723145,"345":-9.308290481567383,"346":10.759742736816406,"347":-20.84965705871582,"348":-8.469351768493652,"349":-0.43735677003860474,"350":11.663716316223145,"351":11.262953758239746,"352":9.670441627502441,"353":-8.300686836242676,"354":1.3409714698791504,"355":-12.107043266296387,"356":-6.745357990264893,"357":-11.466270446777344,"358":9.335927963256836,"359":10.420886039733887,"360":-20.46232032775879,"361":-14.56564712524414,"362":-0.8579041957855225,"363":-3.176605463027954,"364":1.4844707250595093,"365":-5.849621772766113,"366":-6.323468208312988,"367":-1.6861698627471924,"368":15.697175979614258,"369":12.512959480285645,"370":-14.545086860656738,"371":-7.173818588256836,"372":14.84515380859375,"373":-9.16343879699707,"374":-6.847661018371582,"375":7.412167549133301,"376":-9.631046295166016,"377":7.188007354736328,"378":7.066183567047119,"379":-11.214954376220703,"380":13.434412956237793,"381":3.088195562362671,"382":-3.819906234741211,"383":7.96199369430542,"384":7.526531219482422,"385":7.158134937286377,"386":9.30953598022461,"387":-10.32679271697998,"388":-13.534270286560059,"389":-10.556893348693848,"390":17.579769134521484,"391":10.40891170501709,"392":-4.925513744354248,"393":-7.355783462524414,"394":7.554784774780273,"395":-10.536738395690918,"396":6.728860855102539,"397":1.175987958908081,"398":-10.42067813873291,"399":9.66243839263916}},"inputBias":{"rows":20,"columns":1,"weights":{"0":7.370324611663818,"1":5.125169277191162,"2":-5.096828460693359,"3":1.05275297164917,"4":-7.234257698059082,"5":-1.709643006324768,"6":-0.17300528287887573,"7":2.7437915802001953,"8":0.04238549992442131,"9":5.888406753540039,"10":5.876972675323486,"11":-5.802331447601318,"12":-2.531935453414917,"13":4.403542995452881,"14":-5.900657653808594,"15":-6.797931671142578,"16":-4.639244079589844,"17":3.6551997661590576,"18":-0.4480457007884979,"19":-3.2432894706726074}},"forgetMatrix":{"rows":20,"columns":41,"weights":{"0":-7.496933937072754,"1":9.582561492919922,"2":0.8633766174316406,"3":13.584447860717773,"4":0.32873934507369995,"5":5.29005241394043,"6":-5.288085460662842,"7":-1.9486589431762695,"8":-5.395613193511963,"9":-13.452010154724121,"10":4.399532794952393,"11":9.022732734680176,"12":6.648410797119141,"13":-12.298717498779297,"14":-10.66318130493164,"15":4.234118938446045,"16":10.79730224609375,"17":-15.902983665466309,"18":-9.02452564239502,"19":0.9575479030609131,"20":10.120394706726074,"21":-4.89343786239624,"22":-10.18292236328125,"23":-1.3611984252929688,"24":-7.106888771057129,"25":-10.673844337463379,"26":-11.270153999328613,"27":4.510275840759277,"28":15.10873031616211,"29":10.725764274597168,"30":-13.307827949523926,"31":14.279808044433594,"32":-7.750951766967773,"33":-10.449990272521973,"34":-11.760390281677246,"35":8.079399108886719,"36":7.666227340698242,"37":-11.569281578063965,"38":-14.278205871582031,"39":-14.62619686126709,"40":8.552745819091797,"41":17.161678314208984,"42":15.432533264160156,"43":13.007712364196777,"44":-5.75605583190918,"45":-7.2622222900390625,"46":10.715693473815918,"47":-1.3500863313674927,"48":5.180674076080322,"49":4.547862529754639,"50":4.978269100189209,"51":4.484827518463135,"52":-9.052410125732422,"53":2.1563751697540283,"54":5.407715320587158,"55":-17.673751831054688,"56":4.075062274932861,"57":14.686124801635742,"58":4.536256790161133,"59":-11.91539478302002,"60":-15.856551170349121,"61":-13.610860824584961,"62":-3.0639426708221436,"63":15.803105354309082,"64":5.499012470245361,"65":-4.0936665534973145,"66":-14.27182388305664,"67":13.164956092834473,"68":-12.51850700378418,"69":-2.7358875274658203,"70":9.370041847229004,"71":14.65194320678711,"72":13.75262451171875,"73":-13.228689193725586,"74":17.543794631958008,"75":4.7969231605529785,"76":-6.372243881225586,"77":9.146798133850098,"78":-8.96657657623291,"79":-12.515824317932129,"80":9.110696792602539,"81":10.169466018676758,"82":11.11681079864502,"83":13.025354385375977,"84":9.977438926696777,"85":-11.406501770019531,"86":0.36498135328292847,"87":10.514225006103516,"88":-6.108107566833496,"89":0.5041346549987793,"90":4.565834999084473,"91":9.844493865966797,"92":9.686858177185059,"93":-2.492508888244629,"94":3.644308090209961,"95":10.357781410217285,"96":-11.102529525756836,"97":6.787652969360352,"98":8.990458488464355,"99":4.118471622467041,"100":-8.524907112121582,"101":-5.803221225738525,"102":-11.148681640625,"103":-7.88160514831543,"104":8.69316291809082,"105":5.68201208114624,"106":-3.6029717922210693,"107":-11.348176002502441,"108":9.528708457946777,"109":-7.907683849334717,"110":-5.786736965179443,"111":5.587790012359619,"112":11.951208114624023,"113":7.0162529945373535,"114":-7.967856407165527,"115":10.890215873718262,"116":5.658467769622803,"117":-3.538770914077759,"118":2.779042959213257,"119":-5.891698360443115,"120":-4.023580551147461,"121":8.930024147033691,"122":6.3987298011779785,"123":5.708703994750977,"124":2.6848931312561035,"125":1.1324646472930908,"126":0.9561367034912109,"127":-1.3889745473861694,"128":4.562868118286133,"129":4.37954568862915,"130":-2.9787628650665283,"131":4.329201698303223,"132":-2.496647834777832,"133":-2.0000410079956055,"134":1.043196201324463,"135":-0.8605993390083313,"136":-1.55623197555542,"137":-2.757700204849243,"138":-0.5903571844100952,"139":1.475978970527649,"140":-4.4328932762146,"141":1.4719715118408203,"142":-0.7195694446563721,"143":-6.639690399169922,"144":0.2002238780260086,"145":0.3301011919975281,"146":-1.2158517837524414,"147":6.367392063140869,"148":-2.6157376766204834,"149":0.8591936826705933,"150":-5.473451137542725,"151":5.697642803192139,"152":4.324638366699219,"153":-3.205688714981079,"154":6.970160484313965,"155":-5.09514856338501,"156":-0.09835659712553024,"157":-1.1444746255874634,"158":-4.2521467208862305,"159":-0.927978515625,"160":-0.5528921484947205,"161":-4.076464653015137,"162":0.04562485218048096,"163":2.7159183025360107,"164":11.016353607177734,"165":-4.241703987121582,"166":-9.563760757446289,"167":7.932969093322754,"168":12.304059028625488,"169":-8.335945129394531,"170":10.612896919250488,"171":8.494598388671875,"172":-6.956275463104248,"173":-9.808236122131348,"174":-8.805968284606934,"175":-10.128555297851562,"176":-12.828633308410645,"177":12.286078453063965,"178":-11.118585586547852,"179":-11.075933456420898,"180":-5.076504230499268,"181":8.75576400756836,"182":10.170188903808594,"183":-9.308572769165039,"184":-11.335038185119629,"185":10.293128967285156,"186":9.088837623596191,"187":-6.581364631652832,"188":9.680668830871582,"189":4.824707508087158,"190":11.121771812438965,"191":-14.713645935058594,"192":10.964799880981445,"193":7.940004348754883,"194":13.395246505737305,"195":-8.370447158813477,"196":9.519200325012207,"197":12.625985145568848,"198":-13.164246559143066,"199":-11.950579643249512,"200":8.312376022338867,"201":5.706165313720703,"202":9.535894393920898,"203":10.270682334899902,"204":8.719660758972168,"205":5.77676248550415,"206":-9.164347648620605,"207":6.409036159515381,"208":4.2863335609436035,"209":-7.210711479187012,"210":8.78154182434082,"211":-1.5430418252944946,"212":2.062786340713501,"213":-7.529991149902344,"214":1.415345311164856,"215":-4.7690277099609375,"216":-6.662359714508057,"217":4.180384635925293,"218":-1.9256300926208496,"219":11.766717910766602,"220":-0.0631776973605156,"221":-6.431979179382324,"222":-5.0742058753967285,"223":-4.214013576507568,"224":-4.236774921417236,"225":3.1201119422912598,"226":-9.888933181762695,"227":1.3681126832962036,"228":-4.340847969055176,"229":-9.750412940979004,"230":3.0329246520996094,"231":4.924562454223633,"232":-3.809823989868164,"233":-9.124581336975098,"234":-7.790234565734863,"235":0.6448138952255249,"236":-7.870717525482178,"237":4.673893451690674,"238":-12.039371490478516,"239":-3.748141288757324,"240":-6.12607479095459,"241":1.857748031616211,"242":-9.84582233428955,"243":-0.7206639051437378,"244":7.1252241134643555,"245":4.524885177612305,"246":-2.8537635803222656,"247":-2.6771013736724854,"248":-0.36346137523651123,"249":0.8759979009628296,"250":-1.9175925254821777,"251":-1.1658837795257568,"252":-1.684630274772644,"253":0.157844677567482,"254":-2.2570340633392334,"255":1.7796307802200317,"256":-1.538825273513794,"257":-1.8028160333633423,"258":4.377005577087402,"259":-2.3298254013061523,"260":2.2777817249298096,"261":1.5596059560775757,"262":-1.7726130485534668,"263":2.735642194747925,"264":-1.0855772495269775,"265":1.3103668689727783,"266":4.136210918426514,"267":-2.896672487258911,"268":-0.6971921920776367,"269":-2.52274489402771,"270":-1.7818896770477295,"271":3.670895576477051,"272":-2.5182406902313232,"273":6.422725200653076,"274":-2.8915278911590576,"275":-1.9938589334487915,"276":-1.5706901550292969,"277":-2.909137010574341,"278":3.1542866230010986,"279":-0.686123788356781,"280":3.3746495246887207,"281":4.721078395843506,"282":1.7981170415878296,"283":2.9479832649230957,"284":1.6382782459259033,"285":-1.033141016960144,"286":0.5128090977668762,"287":1.2575289011001587,"288":4.506409168243408,"289":-3.518763303756714,"290":-6.350074291229248,"291":3.0311121940612793,"292":1.8374911546707153,"293":4.263681888580322,"294":-2.875767469406128,"295":5.870229721069336,"296":0.12503401935100555,"297":3.9448368549346924,"298":-3.986640691757202,"299":3.723700523376465,"300":0.5307624340057373,"301":-6.716980457305908,"302":-4.257686614990234,"303":1.6944373846054077,"304":-3.698554039001465,"305":-1.5714067220687866,"306":5.4886603355407715,"307":-2.296006441116333,"308":-2.687715530395508,"309":4.933821678161621,"310":5.712818622589111,"311":-3.4023776054382324,"312":-4.032233238220215,"313":1.851654291152954,"314":7.80519962310791,"315":1.8082289695739746,"316":5.889516830444336,"317":-0.6037622690200806,"318":-5.050777912139893,"319":-4.40673828125,"320":-3.3640217781066895,"321":4.633285045623779,"322":4.012287616729736,"323":4.694640159606934,"324":2.643249034881592,"325":-3.7857565879821777,"326":-5.044047832489014,"327":2.2819318771362305,"328":0.4271146357059479,"329":-11.70801067352295,"330":-19.24669647216797,"331":19.88601303100586,"332":10.945637702941895,"333":-19.17231559753418,"334":18.428482055664062,"335":6.604803085327148,"336":-13.459277153015137,"337":-19.67099952697754,"338":-19.048555374145508,"339":-5.4742326736450195,"340":-17.548837661743164,"341":0.2817144989967346,"342":-0.617009162902832,"343":-19.012439727783203,"344":-13.029020309448242,"345":2.6772143840789795,"346":19.139169692993164,"347":-2.6195950508117676,"348":-0.4575847387313843,"349":18.843599319458008,"350":0.5376008152961731,"351":-13.104722023010254,"352":15.507819175720215,"353":17.513530731201172,"354":1.9265565872192383,"355":-5.229293346405029,"356":18.450090408325195,"357":1.808044672012329,"358":0.31479892134666443,"359":-13.347331047058105,"360":17.649097442626953,"361":1.655853271484375,"362":-18.834989547729492,"363":-8.508946418762207,"364":4.69398832321167,"365":14.747174263000488,"366":11.626397132873535,"367":0.5380265116691589,"368":2.5751399993896484,"369":7.587734222412109,"370":6.0644450187683105,"371":-14.615865707397461,"372":16.257112503051758,"373":-9.751848220825195,"374":-13.555665969848633,"375":16.4542236328125,"376":8.298490524291992,"377":13.046541213989258,"378":3.621121406555176,"379":-15.936395645141602,"380":13.77401351928711,"381":-17.04939842224121,"382":-13.952006340026855,"383":14.295082092285156,"384":3.9764082431793213,"385":9.950475692749023,"386":-16.466333389282227,"387":16.131515502929688,"388":12.176432609558105,"389":-8.652612686157227,"390":-3.031505823135376,"391":4.719972133636475,"392":12.488051414489746,"393":-7.324073314666748,"394":-10.526175498962402,"395":-14.728092193603516,"396":-14.558813095092773,"397":17.74629783630371,"398":7.994802474975586,"399":-15.521919250488281,"400":-8.752798080444336,"401":-10.127710342407227,"402":6.624029159545898,"403":2.379692792892456,"404":7.514884948730469,"405":5.888740062713623,"406":7.401365280151367,"407":9.569825172424316,"408":-16.930255889892578,"409":5.662664890289307,"410":-3.809554100036621,"411":-4.5089874267578125,"412":-11.352007865905762,"413":-13.06328010559082,"414":13.742575645446777,"415":13.46369457244873,"416":17.1322078704834,"417":9.184122085571289,"418":12.376453399658203,"419":11.17189884185791,"420":-15.586647033691406,"421":16.300954818725586,"422":-19.45602035522461,"423":9.069467544555664,"424":6.972634315490723,"425":6.265970706939697,"426":20.20402717590332,"427":-16.65828514099121,"428":9.427976608276367,"429":11.168654441833496,"430":11.331745147705078,"431":-6.526272773742676,"432":-6.859687328338623,"433":16.723968505859375,"434":-13.587057113647461,"435":-13.027649879455566,"436":-11.24609661102295,"437":-20.702754974365234,"438":9.20796012878418,"439":4.100949287414551,"440":-9.686546325683594,"441":-5.986547946929932,"442":4.5306572914123535,"443":-9.53054428100586,"444":-7.586663246154785,"445":6.081718921661377,"446":-15.406188011169434,"447":-18.176767349243164,"448":5.377927303314209,"449":6.076180934906006,"450":14.697029113769531,"451":-3.129769802093506,"452":-1.4402649402618408,"453":-1.913602352142334,"454":-1.3323811292648315,"455":1.811868667602539,"456":-1.1878215074539185,"457":-3.729879379272461,"458":2.0227928161621094,"459":-3.4884843826293945,"460":-0.0022997837513685226,"461":2.8515663146972656,"462":-1.0214911699295044,"463":1.2529340982437134,"464":2.4809701442718506,"465":2.5380566120147705,"466":1.9221895933151245,"467":-2.3505361080169678,"468":2.540766477584839,"469":1.1899551153182983,"470":1.278943657875061,"471":0.17976969480514526,"472":-1.4403289556503296,"473":-2.1159040927886963,"474":-1.892857313156128,"475":-1.1222025156021118,"476":1.535496711730957,"477":0.9636424779891968,"478":3.264740467071533,"479":-2.6437621116638184,"480":0.40641090273857117,"481":-0.01097020972520113,"482":-3.1701478958129883,"483":1.9184439182281494,"484":-2.7048001289367676,"485":-0.1406136155128479,"486":0.2805666923522949,"487":0.7167084217071533,"488":3.1155810356140137,"489":3.144089460372925,"490":2.253309726715088,"491":0.4800107479095459,"492":-4.245489597320557,"493":-3.7033090591430664,"494":-3.7520928382873535,"495":2.5645394325256348,"496":0.32873716950416565,"497":-3.9184560775756836,"498":-1.7471328973770142,"499":3.5845789909362793,"500":-6.161624908447266,"501":-2.249478340148926,"502":0.020057814195752144,"503":-4.135612487792969,"504":1.5728410482406616,"505":-0.9817092418670654,"506":1.7301146984100342,"507":2.587768793106079,"508":-4.145722389221191,"509":4.936316967010498,"510":1.0970691442489624,"511":-1.3045899868011475,"512":3.1494245529174805,"513":-0.65009605884552,"514":-1.1555886268615723,"515":-6.298570156097412,"516":-0.6068273782730103,"517":5.856116771697998,"518":0.8025386333465576,"519":6.450994491577148,"520":-3.038844108581543,"521":-0.8827733397483826,"522":-0.3950243294239044,"523":-5.55640172958374,"524":4.878424167633057,"525":-1.4776437282562256,"526":0.41516122221946716,"527":3.1102023124694824,"528":4.1721930503845215,"529":6.209285259246826,"530":3.4005467891693115,"531":3.346240997314453,"532":1.787277340888977,"533":-6.462059020996094,"534":-8.220528602600098,"535":-1.6117823123931885,"536":-2.8395535945892334,"537":-6.192482948303223,"538":-4.16758918762207,"539":-4.587721824645996,"540":-3.8075547218322754,"541":1.1839888095855713,"542":1.8394540548324585,"543":5.012014389038086,"544":-2.7253177165985107,"545":6.887606620788574,"546":3.499243974685669,"547":6.0162458419799805,"548":7.521730422973633,"549":-7.963411331176758,"550":4.065531253814697,"551":1.7767422199249268,"552":2.362161874771118,"553":1.2535796165466309,"554":-7.797735214233398,"555":-4.804716110229492,"556":-1.6866159439086914,"557":0.9226619601249695,"558":1.4521487951278687,"559":-5.251643657684326,"560":9.944458961486816,"561":-5.216060161590576,"562":2.005138635635376,"563":-1.5591610670089722,"564":-5.773845672607422,"565":-0.1875855028629303,"566":-1.5258498191833496,"567":0.4090782403945923,"568":5.042606830596924,"569":-2.1456265449523926,"570":1.2011282444000244,"571":6.1560468673706055,"572":-2.8144102096557617,"573":1.006980061531067,"574":8.057080268859863,"575":9.361981391906738,"576":-11.723010063171387,"577":8.73238468170166,"578":12.298416137695312,"579":-10.730352401733398,"580":7.127588272094727,"581":11.818563461303711,"582":-12.280486106872559,"583":-10.124918937683105,"584":-7.159038066864014,"585":-10.658927917480469,"586":-10.187315940856934,"587":13.109376907348633,"588":-8.475818634033203,"589":-8.619307518005371,"590":3.948549509048462,"591":11.330707550048828,"592":11.489141464233398,"593":-9.08513069152832,"594":-11.39651107788086,"595":9.272582054138184,"596":8.26065731048584,"597":-10.850296020507812,"598":9.63496208190918,"599":9.823744773864746,"600":11.557830810546875,"601":-9.196541786193848,"602":8.702932357788086,"603":10.98187255859375,"604":10.6361665725708,"605":-12.195464134216309,"606":11.019532203674316,"607":7.942498207092285,"608":-11.187885284423828,"609":-11.078418731689453,"610":10.296947479248047,"611":10.30116081237793,"612":12.717146873474121,"613":12.31496810913086,"614":10.20174789428711,"615":-5.4656524658203125,"616":-2.620837926864624,"617":-5.364995002746582,"618":-0.09092959761619568,"619":3.9757657051086426,"620":-4.290233612060547,"621":-4.588809013366699,"622":5.016852855682373,"623":-7.006161689758301,"624":-3.1307857036590576,"625":3.4989383220672607,"626":-4.653041362762451,"627":-0.47345101833343506,"628":3.5110018253326416,"629":3.1022732257843018,"630":3.6713385581970215,"631":-4.638104438781738,"632":5.829941272735596,"633":2.719879627227783,"634":-0.3232569396495819,"635":1.5385559797286987,"636":-0.4210348129272461,"637":-3.3378806114196777,"638":-6.022788047790527,"639":-1.7271287441253662,"640":4.3456926345825195,"641":3.2159621715545654,"642":5.491001605987549,"643":-4.090761184692383,"644":-0.7047643661499023,"645":2.363301992416382,"646":-6.709671974182129,"647":5.765992641448975,"648":-2.9416189193725586,"649":-2.8664379119873047,"650":0.6257502436637878,"651":3.8565902709960938,"652":6.166751861572266,"653":5.312544345855713,"654":5.592967987060547,"655":1.7715204954147339,"656":-4.8926472663879395,"657":-3.603463888168335,"658":-3.9193015098571777,"659":0.12132784724235535,"660":1.5800620317459106,"661":-2.4560158252716064,"662":-4.103376865386963,"663":3.8203368186950684,"664":-5.84777307510376,"665":-0.5016805529594421,"666":2.721628427505493,"667":-2.9311695098876953,"668":2.511610746383667,"669":3.0159568786621094,"670":3.455385684967041,"671":4.127153396606445,"672":-3.5956828594207764,"673":5.027308464050293,"674":1.598657488822937,"675":0.7429459095001221,"676":1.6958054304122925,"677":-2.227701425552368,"678":-2.6449620723724365,"679":-4.0861005783081055,"680":-2.4024171829223633,"681":4.085744857788086,"682":0.47104954719543457,"683":5.7423858642578125,"684":-3.8342843055725098,"685":0.04406844079494476,"686":-0.23705923557281494,"687":-5.565186500549316,"688":4.727443695068359,"689":-3.4773898124694824,"690":-0.10424533486366272,"691":1.543566107749939,"692":2.5158324241638184,"693":5.149278163909912,"694":4.443033218383789,"695":3.5279057025909424,"696":0.44566434621810913,"697":11.593494415283203,"698":-6.651420593261719,"699":1.8226020336151123,"700":11.91116714477539,"701":-9.982810974121094,"702":4.090803623199463,"703":-7.813985824584961,"704":-7.266213417053223,"705":-6.954266548156738,"706":6.433384418487549,"707":-10.876803398132324,"708":-10.707262992858887,"709":-4.5553297996521,"710":8.034557342529297,"711":8.265514373779297,"712":5.698129653930664,"713":-10.650068283081055,"714":-4.744515895843506,"715":-8.533743858337402,"716":-12.733149528503418,"717":-8.136894226074219,"718":-6.526641845703125,"719":2.0605711936950684,"720":-11.793468475341797,"721":-8.221905708312988,"722":10.041768074035645,"723":-7.968469619750977,"724":-12.187527656555176,"725":-7.885840892791748,"726":9.955184936523438,"727":10.190693855285645,"728":-9.87057113647461,"729":-5.161660194396973,"730":-9.394054412841797,"731":-9.258208274841309,"732":-11.757612228393555,"733":-9.022001266479492,"734":-9.266443252563477,"735":-3.910536766052246,"736":10.759400367736816,"737":10.171538352966309,"738":-2.867440938949585,"739":-2.473446846008301,"740":-2.0831921100616455,"741":0.2981048822402954,"742":0.5878276824951172,"743":-1.8386588096618652,"744":-2.721785545349121,"745":2.4454307556152344,"746":-4.008204936981201,"747":-0.5139241814613342,"748":1.7747856378555298,"749":-1.0855787992477417,"750":1.4889825582504272,"751":1.1513222455978394,"752":1.9740979671478271,"753":2.103048801422119,"754":-3.1073453426361084,"755":2.6603429317474365,"756":1.3199177980422974,"757":0.2812640964984894,"758":0.3956613838672638,"759":-0.891825795173645,"760":-1.3715291023254395,"761":-3.445615768432617,"762":-0.2877870202064514,"763":3.4048120975494385,"764":0.4541022479534149,"765":4.111787796020508,"766":-1.9851500988006592,"767":1.1050407886505127,"768":-1.378981590270996,"769":-3.0907671451568604,"770":1.6876204013824463,"771":-2.851520538330078,"772":0.6550332307815552,"773":0.8367075324058533,"774":1.678533911705017,"775":4.261923313140869,"776":2.786844253540039,"777":2.129163980484009,"778":0.8247250318527222,"779":10.652803421020508,"780":10.099888801574707,"781":8.958264350891113,"782":8.635486602783203,"783":-8.982992172241211,"784":8.99859619140625,"785":11.880130767822266,"786":-7.090356349945068,"787":7.566181182861328,"788":-12.697367668151855,"789":-10.032872200012207,"790":5.933773040771484,"791":-10.83816146850586,"792":-9.26852798461914,"793":-9.769258499145508,"794":8.005807876586914,"795":10.104175567626953,"796":-8.029598236083984,"797":10.429943084716797,"798":7.150585174560547,"799":-11.429803848266602,"800":-7.3144145011901855,"801":10.610209465026855,"802":-11.550668716430664,"803":10.840340614318848,"804":-9.99288272857666,"805":10.900611877441406,"806":-13.236883163452148,"807":7.559138298034668,"808":-9.40832805633545,"809":11.196977615356445,"810":9.453561782836914,"811":-8.903083801269531,"812":-8.736855506896973,"813":-12.70914077758789,"814":-12.684220314025879,"815":8.82923412322998,"816":-10.039505958557129,"817":-1.6380239725112915,"818":-7.265755653381348,"819":9.396089553833008}},"forgetHidden":{"rows":20,"columns":20,"weights":{"0":-13.926457405090332,"1":25.53124237060547,"2":-15.139139175415039,"3":13.374640464782715,"4":-4.7957611083984375,"5":16.63350486755371,"6":4.97136116027832,"7":-5.725871562957764,"8":4.656511306762695,"9":7.239925384521484,"10":-14.308382034301758,"11":5.8839311599731445,"12":-5.8852081298828125,"13":-5.369266510009766,"14":-4.621661186218262,"15":-6.26973295211792,"16":-4.123246192932129,"17":5.22515869140625,"18":-5.883508682250977,"19":-23.26735496520996,"20":10.420958518981934,"21":-6.86190128326416,"22":7.057587623596191,"23":-0.18379215896129608,"24":3.882906913757324,"25":-1.2843672037124634,"26":2.5998501777648926,"27":-6.786429405212402,"28":-7.7160797119140625,"29":-11.34211540222168,"30":14.099929809570312,"31":3.336878776550293,"32":-2.9313156604766846,"33":2.6278769969940186,"34":3.0347182750701904,"35":-3.750504970550537,"36":13.602165222167969,"37":-7.002127647399902,"38":-3.4506876468658447,"39":12.81698226928711,"40":10.058029174804688,"41":-10.377656936645508,"42":10.454227447509766,"43":0.8255543112754822,"44":-0.07802063971757889,"45":-0.38401880860328674,"46":-0.21353644132614136,"47":0.28286048769950867,"48":-8.957749366760254,"49":-10.316999435424805,"50":10.51260757446289,"51":0.05819622427225113,"52":0.09642673283815384,"53":1.7049853801727295,"54":0.04457012936472893,"55":0.09921868145465851,"56":12.019553184509277,"57":0.17393964529037476,"58":0.08839887380599976,"59":11.956659317016602,"60":2.9392611980438232,"61":4.006655693054199,"62":-0.22625839710235596,"63":-0.11838012933731079,"64":0.8151025772094727,"65":-0.9649467468261719,"66":0.44637244939804077,"67":-3.806898593902588,"68":0.7710078358650208,"69":-3.1744730472564697,"70":4.242956161499023,"71":0.6135362982749939,"72":-0.4341687560081482,"73":1.1226540803909302,"74":0.5831903219223022,"75":-0.7025652527809143,"76":0.9047892689704895,"77":-3.856851577758789,"78":-0.6428020596504211,"79":4.201176643371582,"80":-1.5413070917129517,"81":-2.9010977745056152,"82":1.9941593408584595,"83":0.33552590012550354,"84":-1.593993067741394,"85":-3.306750774383545,"86":-1.7044932842254639,"87":2.357872247695923,"88":3.637378692626953,"89":0.7791947722434998,"90":-0.5552818179130554,"91":-1.8423150777816772,"92":2.068540573120117,"93":4.279009819030762,"94":-1.111173391342163,"95":2.2406070232391357,"96":3.3459506034851074,"97":1.29288911819458,"98":2.0358054637908936,"99":4.1703057289123535,"100":10.337601661682129,"101":9.16117000579834,"102":11.445862770080566,"103":-11.650590896606445,"104":4.589049339294434,"105":-12.067365646362305,"106":-1.083257794380188,"107":-9.368947982788086,"108":-11.551227569580078,"109":-0.7861330509185791,"110":8.9552583694458,"111":-1.1573737859725952,"112":1.0074005126953125,"113":-1.099486231803894,"114":-1.992903232574463,"115":2.4245643615722656,"116":-11.65505313873291,"117":-9.092521667480469,"118":1.185714602470398,"119":9.551278114318848,"120":-3.1268084049224854,"121":-4.27449369430542,"122":3.9922168254852295,"123":-3.8834753036499023,"124":-4.136599063873291,"125":-4.081482887268066,"126":-3.134672164916992,"127":3.8295583724975586,"128":0.07575377076864243,"129":1.9347848892211914,"130":-4.181041240692139,"131":-4.282235622406006,"132":4.048847198486328,"133":0.43757376074790955,"134":-4.102447032928467,"135":4.652451515197754,"136":-0.04925457015633583,"137":4.311264991760254,"138":4.2161030769348145,"139":-0.2713337242603302,"140":-8.90909194946289,"141":-8.649116516113281,"142":-10.925029754638672,"143":10.576436996459961,"144":1.2221601009368896,"145":10.8319730758667,"146":-7.852818489074707,"147":17.510356903076172,"148":9.805526733398438,"149":-7.605036735534668,"150":-8.674004554748535,"151":-7.603063583374023,"152":-9.917954444885254,"153":8.832072257995605,"154":0.962127685546875,"155":7.59507942199707,